%YAML:1.0
---
opencv_ml_ann_mlp:
   format: 3
   layer_sizes: [ 256, 10, 26 ]
   activation_function: SIGMOID_SYM
   f_param1: 6.6666666666666663e-01
   f_param2: 1.7159000000000000e+00
   min_val: -9.4999999999999996e-01
   max_val: 9.4999999999999996e-01
   min_val1: -9.7999999999999998e-01
   max_val1: 9.7999999999999998e-01
   training_params:
      train_method: BACKPROP
      dw_scale: 1.0000000000000000e-03
      moment_scale: 0.
      term_criteria:
         iterations: 300
   input_scale:
      - 7.3472455177964280e-01
      - -3.0464188732326652e-01
      - 4.5008769665816922e-01
      - -3.9519895316327053e-01
      - 9.2335785168138923e-02
      - -3.9862034084781928e-01
      - 6.2479241691168579e-02
      - -4.3583080789449302e-01
      - 6.8173125364617879e-02
      - -6.0191881419491888e-01
      - 3.8366815057515061e-02
      - -7.3739146988589921e-01
      - 4.9097888308142046e-02
      - -7.1371564467445514e-01
      - 3.4994248592269871e-02
      - -9.0558287210727639e-01
      - 3.3952521560631742e-02
      - -8.4467248760596048e-01
      - 3.5790215539676574e-02
      - -8.4499825957090058e-01
      - 2.0646244302677058e-02
      - -7.3067562154108323e-01
      - 3.9832942951868844e-02
      - -8.3163412601950559e-01
      - 2.0286681183177811e-02
      - -7.4318524724714807e-01
      - 2.9706541800556603e-02
      - -4.6733462100875633e-01
      - 1.4019808729559654e-02
      - -6.7260887246448386e-01
      - 2.8161452911287521e-02
      - -5.3506760531446296e-01
      - 8.7164228644578887e-02
      - -1.9133611165883171e-01
      - 2.7277622639882909e-01
      - -3.3265393463271842e-01
      - 1.2659145541181874e-01
      - -5.3106659343494689e-01
      - 5.0258233124677823e-02
      - -5.5038894324342302e-01
      - 4.3509757859731907e-02
      - -6.1338146446158637e-01
      - 4.5995988974412635e-02
      - -7.7071327866881667e-01
      - 4.3804118798126207e-02
      - -6.8484000364875364e-01
      - 4.9768057628839228e-02
      - -8.6305095058791925e-01
      - 3.7064676874786241e-02
      - -7.3406140542259579e-01
      - 3.5820198398498135e-02
      - -8.7628436569984469e-01
      - 3.4325118631265882e-02
      - -9.6780090579861855e-01
      - 4.6604271218516700e-02
      - -7.9340930025669887e-01
      - 4.5075797638798876e-02
      - -6.9042929066257785e-01
      - 1.9037025967422780e-02
      - -7.9444759586000924e-01
      - 1.7710978077143093e-02
      - -6.5487421377924215e-01
      - 3.8100173360262925e-02
      - -3.2431610982272585e-01
      - 4.9251247960690553e-01
      - -3.8439998408343845e-01
      - 1.2111533293389555e-01
      - -3.3675970620644124e-01
      - 5.5502081061644705e-02
      - -4.4943148566990349e-01
      - 4.9215184242413994e-02
      - -5.2456184180329057e-01
      - 4.4316529961975069e-02
      - -6.4204923896129740e-01
      - 3.3282773297196158e-02
      - -8.1421028334360357e-01
      - 3.7664451305755541e-02
      - -8.1483825141963806e-01
      - 3.8030417222442055e-02
      - -8.5243788847376212e-01
      - 2.1422464338856639e-02
      - -7.4612875794847022e-01
      - 3.6955597911638521e-02
      - -9.4912791709647226e-01
      - 2.4060949998524029e-02
      - -6.2265043776668283e-01
      - 1.4333898029359620e-02
      - -5.3175265616234102e-01
      - 4.2251788493725309e-02
      - -6.2553257599246981e-01
      - 1.1873742446399972e-02
      - -7.4051608379133482e-01
      - 2.1807406228250149e-02
      - -9.8346083209840296e-01
      - 3.7397272867827812e-02
      - -6.5125982506412339e-01
      - 4.4408094264752274e-01
      - -4.6574342765471899e-01
      - 7.7191592005808968e-02
      - -3.3324175085434604e-01
      - 3.6567053014789526e-02
      - -3.8350811698437798e-01
      - 3.6163978028986569e-02
      - -6.5977208696785250e-01
      - 3.9810215903599344e-02
      - -8.3795649572698128e-01
      - 2.2292158126803126e-02
      - -8.6232592168560385e-01
      - 1.4045763541581435e-02
      - -7.0126043828334628e-01
      - 1.4928151893391521e-02
      - -7.3584865796449417e-01
      - 1.6851829907133912e-02
      - -6.8270462135974219e-01
      - 2.4957120905936218e-02
      - -7.4627878611409271e-01
      - 1.5629922172404952e-02
      - -7.4223069438225464e-01
      - 1.2535975562049122e-02
      - -6.4636713019931324e-01
      - 4.3055399377998980e-02
      - -5.9647480113910778e-01
      - 1.5882291737738342e-02
      - -8.4214883506934524e-01
      - 2.1332586901847066e-02
      - -1.0338500042431735e+00
      - 3.9338243470666480e-02
      - -6.3420924229537912e-01
      - 7.2104248628890158e-02
      - -4.0096996798504769e-01
      - 2.4990394444252953e-02
      - -4.6994131991509819e-01
      - 2.3972157014849706e-02
      - -5.7533176835639299e-01
      - 2.5961277232235441e-02
      - -6.0787380836453708e-01
      - 1.7619344990978406e-02
      - -7.0950094097817917e-01
      - 1.2455219987566539e-02
      - -7.2908604805267552e-01
      - 9.7576839829281239e-03
      - -1.0095633037946610e+00
      - 9.1842020605459752e-03
      - -1.0028700640259591e+00
      - 1.0347481034729022e-02
      - -9.7670125864393453e-01
      - 1.5178838051709557e-02
      - -6.9674568812969240e-01
      - 1.8575078705605406e-02
      - -8.0280584064226290e-01
      - 1.1072289824655943e-02
      - -6.9404353291136034e-01
      - 2.4701977706133086e-02
      - -3.4100778979686164e-01
      - 1.7607568001239051e-02
      - -5.9736895340789076e-01
      - 1.7004574350094642e-02
      - -8.4234854890346877e-01
      - 2.6800694552905287e-02
      - -5.6869766490311213e-01
      - 4.4471737938077148e-02
      - -4.9244314692407376e-01
      - 3.5149922269932583e-02
      - -5.8726089646106872e-01
      - 4.1491685341528840e-02
      - -7.9238999079066053e-01
      - 2.2891614537432693e-02
      - -6.8395677581353775e-01
      - 1.6241018475691874e-02
      - -9.1385438105905248e-01
      - 9.9715472383334995e-03
      - -1.0285286163637162e+00
      - 9.1689001801283868e-03
      - -1.3062328281007296e+00
      - 9.1383687582150836e-03
      - -1.3689722173891963e+00
      - 9.9515524591436214e-03
      - -1.3274400097330843e+00
      - 9.9454619195243482e-03
      - -1.1534310104228847e+00
      - 1.0493411508344786e-02
      - -9.3033050811788520e-01
      - 1.0556355131218774e-02
      - -6.6968487064146409e-01
      - 1.6576938338033951e-02
      - -4.8962615432583206e-01
      - 1.7749313579555885e-02
      - -3.9005198866292323e-01
      - 2.8568355788942491e-02
      - -1.1664250631875543e+00
      - 3.3926776031952217e-02
      - -5.8089260425440137e-01
      - 5.9596045035625531e-02
      - -4.2734724976765626e-01
      - 4.0374987840669528e-02
      - -7.5333818775883399e-01
      - 3.7233483553133565e-02
      - -7.7463808465421780e-01
      - 2.5453949486630188e-02
      - -7.6920593692523909e-01
      - 1.0929521004086534e-02
      - -8.6503160142099511e-01
      - 9.6267872989258090e-03
      - -1.1016801465014610e+00
      - 9.9226335407655956e-03
      - -1.0597856652442084e+00
      - 9.5320518488447616e-03
      - -1.1924364373835312e+00
      - 1.1037427268957517e-02
      - -1.9019371623215817e+00
      - 1.2685360613383923e-02
      - -2.4198098867628208e+00
      - 1.0576350516156713e-02
      - -1.4543771758558912e+00
      - 9.1464198549718601e-03
      - -1.0911009636748139e+00
      - 1.4120721293723697e-02
      - -5.0111340200897503e-01
      - 1.9286484645943899e-01
      - -4.7981010582592137e-01
      - 1.9441561856652648e-02
      - -6.4109735683400926e-01
      - 3.7223998804913463e-02
      - -5.7197851822184098e-01
      - 5.7809701592871528e-02
      - -5.4848716877139081e-01
      - 2.5438707625755490e-02
      - -5.6771749945283589e-01
      - 2.5447016190300410e-02
      - -6.2686552078544910e-01
      - 1.7304421719915617e-02
      - -8.0149016697853070e-01
      - 1.4689666974975509e-02
      - -7.7962720335479774e-01
      - 1.3876947592338065e-02
      - -7.6898597389736789e-01
      - 1.5379532824060824e-02
      - -7.9410904850089670e-01
      - 9.6903596839119296e-03
      - -1.0775207268037679e+00
      - 9.8734425216651968e-03
      - -1.5544651579841182e+00
      - 1.2327121891936710e-02
      - -2.3713173258952400e+00
      - 9.9742839525288306e-03
      - -1.2535972001800260e+00
      - 9.2197921499796616e-03
      - -9.4244265611133560e-01
      - 1.5551991778732241e-02
      - -3.9183432944952207e-01
      - 2.8013935441101911e-01
      - -5.0561737137598572e-01
      - 3.4738278970661500e-02
      - -6.2189992108452541e-01
      - 3.9466522768684412e-02
      - -7.0269662490584439e-01
      - 4.2974011776539464e-02
      - -5.5971029972370911e-01
      - 4.4894164773158551e-02
      - -5.9676389759442461e-01
      - 4.8055249615079086e-02
      - -6.4815983017411549e-01
      - 1.3777801144841480e-02
      - -6.2470566654293447e-01
      - 1.0431286817912050e-02
      - -7.7445944082254348e-01
      - 1.1202832276211796e-02
      - -8.5688004922439487e-01
      - 1.1948960912519393e-02
      - -7.8396841108968696e-01
      - 9.2656334939229153e-03
      - -8.6644972721220626e-01
      - 9.0933494998716880e-03
      - -1.3493643501760815e+00
      - 1.0931478734512935e-02
      - -2.0391207161354861e+00
      - 9.6492338523893901e-03
      - -1.2692272723399018e+00
      - 1.0005660364499753e-02
      - -8.4560032104857674e-01
      - 1.1115129777284936e-02
      - -6.6744998808964662e-01
      - 2.7498168655959072e-02
      - -2.6290931983258431e-01
      - 3.6281964054987535e-02
      - -6.1679338893478808e-01
      - 3.2645733404790656e-02
      - -6.8794911370095435e-01
      - 8.6528705911254722e-02
      - -3.4611482364501889e-01
      - 1.5168548439368207e-01
      - -6.6963591890869412e-01
      - 6.2922375952988677e-02
      - -5.5095446261275449e-01
      - 1.1996204062461885e-01
      - -7.4610537461653192e-01
      - 1.0161541399775969e-02
      - -8.1465820929423438e-01
      - 9.5208558133377703e-03
      - -1.3294365739355789e+00
      - 1.0135535176079041e-02
      - -1.4419652849285134e+00
      - 9.7882586697344582e-03
      - -1.2970636427479831e+00
      - 1.0921428571870426e-02
      - -1.9813069687212739e+00
      - 9.6855606833350684e-03
      - -1.3108579568738121e+00
      - 9.9962935548380313e-03
      - -1.4050887745495506e+00
      - 9.1282083672332166e-03
      - -9.2194904509055486e-01
      - 1.3642718943637392e-02
      - -4.5886120544575520e-01
      - 6.8676813263499850e-02
      - -3.2160849138029196e-01
      - 6.4589278351932053e-02
      - -3.6075474981932776e-01
      - 4.2298486964889380e-02
      - -5.3337360392311728e-01
      - 2.8801908630882117e-01
      - -4.2851620158141684e-01
      - 5.2576634649422499e-02
      - -2.9365973987116467e-01
      - 2.3745881732106883e-01
      - -7.4712652279068004e-01
      - 2.6414115532804133e-02
      - -3.2405610031708482e-01
      - 1.6218656433715326e-02
      - -3.4098736209420999e-01
      - 1.0012921491848011e-02
      - -8.6819355862243119e-01
      - 1.0268282266037864e-02
      - -1.5262173690057252e+00
      - 1.0386179238556332e-02
      - -1.7008001806748099e+00
      - 9.4492157173870495e-03
      - -1.4736167145603118e+00
      - 9.1199200289057807e-03
      - -1.3034812529118995e+00
      - 9.0313374057838566e-03
      - -1.0341982712232978e+00
      - 1.0623124964316909e-02
      - -6.6822047031642218e-01
      - 1.4188638472699334e-02
      - -4.2842766900492135e-01
      - 8.0061023946523133e-02
      - -3.7687262491899909e-01
      - 1.0250000000000001e+00
      - -2.2500000000000003e-01
      - 7.3976133806615468e-02
      - -4.2400954742816183e-01
      - 8.9640241236558349e-01
      - -1.9677126125098174e-01
      - 2.5736836299174753e-01
      - -2.5109108584560735e-01
      - 1.9096846531470121e-01
      - -2.8412381424870181e-01
      - 4.2993854440876872e-01
      - -3.5653440268044234e-01
      - 4.7491253699031233e-02
      - -2.2818968240754031e-01
      - 2.3638832744416617e-02
      - -3.1883596360152172e-01
      - 1.5319815681937556e-02
      - -5.2647854380121994e-01
      - 1.0124339487067358e-02
      - -8.0327991101049068e-01
      - 8.8730875520505285e-03
      - -8.8968933967023711e-01
      - 9.6514103530610847e-03
      - -9.6608263631616320e-01
      - 1.0330794110997620e-02
      - -6.6293461722035951e-01
      - 1.2539917494829415e-02
      - -6.3250120437334700e-01
      - 1.3933327717528326e-02
      - -4.8596728380647569e-01
      - 3.6316049827782096e-02
      - -3.5430292514909362e-01
      - 7.8357651466961137e-02
      - -2.2742830547727744e-01
      - 7.9191318009532510e-02
      - -2.8586134305880029e-01
      - 4.8019771876630944e-02
      - -1.5811388300841894e-01
      - 2.0800662464008798e-01
      - -1.8771329540690868e-01
      - 3.1937818833549986e-01
      - -1.8695308585492673e-01
      - 1.0193770786538639e-01
      - -1.9393027350000336e-01
      - 4.6821228504881324e-01
      - -3.6543397857468352e-01
      - 2.0909116608484543e-01
      - -1.7339267431426206e-01
      - 1.8848632424912373e-01
      - -3.2640314687043376e-01
      - 2.1355331092279058e-02
      - -3.1772565771439576e-01
      - 2.7520559590706515e-02
      - -4.3898648712980637e-01
      - 1.0969010902607245e-02
      - -6.5252238027948950e-01
      - 1.3446357082896687e-02
      - -5.1784872765594803e-01
      - 1.6505900905456606e-02
      - -4.7303496497345154e-01
      - 2.7668063517594384e-02
      - -2.9017725152598989e-01
      - 2.7636403884799314e-02
      - -2.5479416264522292e-01
      - 3.7220470732772104e-01
      - -2.1787592624061719e-01
      - 8.1471175982866545e-02
      - -2.4242642609535900e-01
      - 1.6206673008362942e+00
      - -1.5811388300841894e-01
      - 3.0292846744603634e-02
      - -1.5811388300841897e-01
      - 6.4826692033451767e+00
      - -1.5811388300841894e-01
      - 2.0508718058155917e-01
      - -1.9008080151461582e-01
      - 2.0559192892016309e-01
      - -2.0559192892016309e-01
      - 1.
      - 0.
      - 2.0517961077354899e-01
      - -1.9517084927240025e-01
      - 7.5718477653194571e-01
      - -2.7701882068241918e-01
      - 5.2323847491240982e-01
      - -3.1904785055634743e-01
      - 2.5552507756141794e-02
      - -3.3654522410528215e-01
      - 1.5427280521363962e-02
      - -4.0825852111414390e-01
      - 1.6081347424495497e-02
      - -3.9026684603348832e-01
      - 1.5977394813503717e-01
      - -7.2872508051834017e-01
      - 1.4952752431499650e-01
      - -5.3975789264925567e-01
      - 1.4589546381776353e-01
      - -3.7007629846457091e-01
      - 2.0775545077088622e-01
      - -1.9762103853816007e-01
      - 1.
      - 0.
      - 1.6206673008362942e+00
      - -1.5811388300841894e-01
      - 1.6206673008362942e+00
      - -1.5811388300841894e-01
      - 9.3912285212032121e-01
      - -2.7486522501082572e-01
      - 6.4826692033451767e+00
      - -1.5811388300841894e-01
      - 6.4826692033451767e+00
      - -1.5811388300841894e-01
      - 3.6253386782017161e-01
      - -2.1221494701668581e-01
      - 5.1557034119855327e-01
      - -2.6407261378462488e-01
      - 2.1608897344483924e+00
      - -1.5811388300841894e-01
      - 2.2023476095731267e-02
      - -2.3097792002840109e-01
      - 1.7756273213259344e-02
      - -3.7331481731291594e-01
      - 1.2213854139237873e-01
      - -7.1793630428203103e-01
      - 1.6730374221950345e-01
      - -8.2427697386194376e-01
      - 1.0390107146786313e-01
      - -5.1443701238966377e-01
      - 1.5046302147624879e-01
      - -4.1836059629981370e-01
      - 1.8317449115959580e-01
      - -2.5912488993308674e-01
      - 1.6206673008362942e+00
      - -1.5811388300841894e-01
      - 1.6206673008362942e+00
      - -1.5811388300841894e-01
      - 1.6206673008362942e+00
      - -1.5811388300841894e-01
      - 1.6206673008362942e+00
      - -1.5811388300841894e-01
      - 8.1287787536109768e-01
      - -2.1808918607248964e-01
      - 1.6206673008362942e+00
      - -1.5811388300841894e-01
      - 2.1608897344483924e+00
      - -1.5811388300841894e-01
      - 1.6206673008362942e+00
      - -1.5811388300841894e-01
      - 6.6319083428469183e-01
      - -2.2645540682891918e-01
      - 2.7580695291998060e-02
      - -1.7759276968506069e-01
      - 3.4056163412510859e-02
      - -2.8989270807234852e-01
      - 2.9381480089631394e-02
      - -3.1173033753633306e-01
      - 2.5224202837378751e-01
      - -9.7820689052273690e-01
      - 3.3369746936391859e-01
      - -1.1801495867748339e+00
      - 4.5371307648475655e-02
      - -3.4858443681145929e-01
      - 1.4274713846230913e-01
      - -3.4816375234709546e-01
   output_scale:
      - 1.
      - 0.
      - 1.
      - 0.
      - 5.2631578947368418e-01
      - 4.9999999999999994e-01
      - 1.
      - 0.
      - 1.
      - 0.
      - 1.
      - 0.
      - 1.
      - 0.
      - 1.
      - 0.
      - 1.
      - 0.
      - 1.
      - 0.
      - 1.
      - 0.
      - 1.
      - 0.
      - 1.
      - 0.
      - 1.
      - 0.
      - 1.
      - 0.
      - 1.
      - 0.
      - 1.
      - 0.
      - 1.
      - 0.
      - 1.
      - 0.
      - 1.
      - 0.
      - 1.
      - 0.
      - 1.
      - 0.
      - 1.
      - 0.
      - 1.
      - 0.
      - 5.2631578947368418e-01
      - 4.9999999999999994e-01
      - 1.
      - 0.
   inv_output_scale:
      - 1.
      - 0.
      - 1.
      - 0.
      - 1.8999999999999999e+00
      - -9.4999999999999996e-01
      - 1.
      - 0.
      - 1.
      - 0.
      - 1.
      - 0.
      - 1.
      - 0.
      - 1.
      - 0.
      - 1.
      - 0.
      - 1.
      - 0.
      - 1.
      - 0.
      - 1.
      - 0.
      - 1.
      - 0.
      - 1.
      - 0.
      - 1.
      - 0.
      - 1.
      - 0.
      - 1.
      - 0.
      - 1.
      - 0.
      - 1.
      - 0.
      - 1.
      - 0.
      - 1.
      - 0.
      - 1.
      - 0.
      - 1.
      - 0.
      - 1.
      - 0.
      - 1.8999999999999999e+00
      - -9.4999999999999996e-01
      - 1.
      - 0.
   weights:
      -
         - -6.0730045018663964e-03
         - 1.5414648282908480e-03
         - -3.2647438091254577e-03
         - 5.7758965445312760e-03
         - 1.6821366454074630e-03
         - -7.4420988793969514e-03
         - 1.8630696154676124e-03
         - -2.1610134481005088e-03
         - -5.6449334367968734e-03
         - -4.7700926300626133e-03
         - 1.0639781879653823e-02
         - 7.4778049711594376e-04
         - 3.1422326851835158e-03
         - 4.6715604048738783e-03
         - -4.8180924423727210e-04
         - 8.3995531601194599e-03
         - 9.3085805610214362e-03
         - 7.0378955168523463e-03
         - 1.0833981935120779e-02
         - 1.6061230423738616e-02
         - -5.7061222452243609e-03
         - 7.5040638821825233e-03
         - -4.0175927154356018e-03
         - -7.9563039022694816e-04
         - -3.4269240384749281e-03
         - -2.1903106370043898e-03
         - -7.5844254328560623e-03
         - 2.2464682463302055e-03
         - -4.8858658593922515e-03
         - -1.0497815293687587e-02
         - -1.5572861587063690e-02
         - 6.4668844968769510e-03
         - 1.3437444927392578e-03
         - -1.1235879472089939e-02
         - 2.4001763639241126e-03
         - -8.6248153475020368e-03
         - -5.1755678841903926e-03
         - -4.2797202866012400e-03
         - -1.1617943831602444e-02
         - -7.1748149926086002e-03
         - -1.0095873109571215e-02
         - 1.7312184966375922e-03
         - -1.0236421349753342e-03
         - -1.0124188616605185e-02
         - 7.8557944392602762e-05
         - -1.1618116339439242e-02
         - 1.8256127502258369e-03
         - -2.2082772757909797e-03
         - -9.7366411491470531e-04
         - -1.2690206647523902e-02
         - 8.6137035193075730e-03
         - -3.3405095020676971e-03
         - -2.2247798482695224e-03
         - 1.5361267985545209e-02
         - -4.8427420539257429e-03
         - 9.2380301815762154e-03
         - 3.3882486848501999e-03
         - 5.0807021059921095e-03
         - 1.4269225248455392e-02
         - 2.2608951953323075e-02
         - 1.0045905189374253e-02
         - 2.0834947542170334e-04
         - -1.4620010194240987e-03
         - 6.5331565313829186e-03
         - 4.7062851176697925e-03
         - 8.3922246343926758e-03
         - 8.2838270254384904e-03
         - 2.3738100742777559e-03
         - 4.4408947465405029e-03
         - 1.3193190015636317e-02
         - 1.8973450248086110e-03
         - -5.9527990930213510e-03
         - -4.0025478955548746e-03
         - 4.4948045301976798e-03
         - 1.2503267591031809e-03
         - 4.4762092249313510e-05
         - 9.2207948446288001e-03
         - 3.4305885876217469e-03
         - -2.5339025015721031e-03
         - 9.0773864724217855e-03
         - -6.7814871709454385e-03
         - -1.3140324911133743e-03
         - 9.8372629174291269e-04
         - 1.1260044471148127e-03
         - -4.9611368318693855e-03
         - -8.0646524428456788e-03
         - -6.5426483787947142e-03
         - -2.8461322337678531e-03
         - -3.5771240224142836e-03
         - -1.2568158572633622e-02
         - 7.9271508418832168e-03
         - -2.4048576374169511e-03
         - 2.8510766253665243e-04
         - -5.6335374672656464e-04
         - 2.4678932804912956e-03
         - -2.7530661893693204e-04
         - 2.4167237545233179e-03
         - 8.4066921255010335e-03
         - 5.0635971353357994e-03
         - 1.0620010356003323e-02
         - 1.8508041707676549e-02
         - -8.8946900863933094e-03
         - 4.8256591326276297e-03
         - 7.6396547639823609e-03
         - 3.7216302387926416e-03
         - 5.7534335134547436e-03
         - 7.3208912147224468e-03
         - 1.1165692147091366e-02
         - 7.8976907590618643e-03
         - 1.9218792593653618e-02
         - 1.4705886735966350e-02
         - -8.6035141276813113e-03
         - -2.0698855998987726e-03
         - 1.2509319670154248e-02
         - -4.8366369250283214e-03
         - 1.5148455214013961e-02
         - 1.3080576509235373e-02
         - 3.5497728000175063e-03
         - 2.2203365182523391e-02
         - 1.7038612849246817e-02
         - -1.7716775436475870e-02
         - 4.1245477688945932e-04
         - -2.4164778137053841e-03
         - -1.1045326060815335e-02
         - -1.5618366147607159e-03
         - -9.5752491329233747e-03
         - -9.9850466179274375e-03
         - -1.1369567914550727e-02
         - -7.4028673720409124e-03
         - -2.0776133573351049e-02
         - -1.9899225829782529e-04
         - -2.5878373592298507e-03
         - -2.4235681685491010e-03
         - 2.0344766269744120e-03
         - 3.3115336201440444e-03
         - -7.5967396991872291e-04
         - -4.3276399039668601e-04
         - 1.9181204941082237e-03
         - -2.5240926727485434e-03
         - 1.2298767973052186e-03
         - 1.8436831469701858e-03
         - 5.8028560265642086e-03
         - 4.4567671122658524e-03
         - 6.5142082080294353e-03
         - -1.1641931734268949e-04
         - 1.1496050868374939e-02
         - 1.5098082059749030e-03
         - -3.4412527108399343e-03
         - 1.4352341002338664e-03
         - -6.1662477567067024e-04
         - 1.7523249652669493e-02
         - -2.7692502586568416e-03
         - -2.2176778259424624e-03
         - 1.6452505326764278e-02
         - 7.3294730871576296e-03
         - 2.3699646360446101e-02
         - 1.8425174534215574e-02
         - 7.3242810674375896e-03
         - 2.0333493168028467e-02
         - 3.4561141732745451e-02
         - -2.2386846958532443e-02
         - -2.9148962363960934e-03
         - -6.0356021928450682e-03
         - -1.4027346493171194e-02
         - -7.2351622334694606e-03
         - -2.7628158009322966e-02
         - -4.5691927306015512e-03
         - -3.3849058276123828e-03
         - -2.5507252041823601e-02
         - -3.2850119118613554e-02
         - -1.1520768195621856e-04
         - -8.2575259504027922e-04
         - 8.0267915777695929e-04
         - -8.0167873941934065e-04
         - 2.4350939004415288e-03
         - -3.5681101709544322e-03
         - -7.8275064304095482e-04
         - -6.1127812513373913e-03
         - -2.0924217131394881e-03
         - 1.5276751187082631e-03
         - -6.5738954217460285e-03
         - -2.6423410679626298e-03
         - 5.8859697758591118e-03
         - -4.8762952224566244e-03
         - 4.3296441748137864e-03
         - -5.3583243858816522e-04
         - 3.6201084034117913e-03
         - -5.2035829913129805e-03
         - 5.4957737195759620e-03
         - -9.3291576643166011e-03
         - 1.7120645180752684e-02
         - 2.6074540370111961e-03
         - 1.9386410172440181e-03
         - 1.8497204649644775e-02
         - 5.7847439179516914e-03
         - 1.2966392489471708e-02
         - 6.1198156753028239e-03
         - 1.0375377474873906e-02
         - 2.5933742396325593e-02
         - 4.0113595325121584e-02
         - -5.6717201446858673e-03
         - 3.3637031866300790e-03
         - 3.3563754998994604e-03
         - -1.3317893592696426e-03
         - 7.5975215095250813e-03
         - -4.6458062577877119e-03
         - -1.1317789141031886e-02
         - -4.7868951524070689e-03
         - 2.4281541618396034e-03
         - -5.8629442042162569e-03
         - -3.3536049924169872e-03
         - 2.4772011235867360e-03
         - -1.9373495542121403e-03
         - 2.3909069815222675e-03
         - -3.9820236230784668e-03
         - 3.7424272359999284e-03
         - 3.6843486503224170e-04
         - 5.4702877820199019e-03
         - 2.2281999799290235e-03
         - 1.7151970858644420e-03
         - 6.1410668607934892e-03
         - -4.5955428491350857e-04
         - 3.0017064938167304e-03
         - 4.7509395215474129e-03
         - -3.4359899700284954e-03
         - 2.0282206860555443e-03
         - 3.0753220040046010e-03
         - 3.1567188739456461e-03
         - 4.9397253268491214e-03
         - 1.1923904750630260e-02
         - 4.4289982467108538e-05
         - -5.4350689932597066e-03
         - -3.2506660594866952e-03
         - 9.0066598301609003e-03
         - 2.0434691254165660e-03
         - 5.3819258485131201e-03
         - 4.4183422758195708e-03
         - -1.4898064423628604e-04
         - 1.0898742748792557e-02
         - 1.2651279549133128e-02
         - 1.1843032130631960e-02
         - -1.1313758266630616e-03
         - 7.9720619923134958e-04
         - 1.4302764291713822e-02
         - 1.0051688240915138e-02
         - 4.5490235475761235e-03
         - 6.9321399195639176e-03
         - 3.4305830283065534e-03
         - 5.3190860188861181e-03
         - 9.9814299415120298e-03
         - -1.2183771419266366e-02
         - -2.8911019020100613e-03
         - 6.9538446890834364e-04
         - -1.5567629314996564e-03
         - -6.3581069885809433e-03
         - -3.6529656735235293e-03
         - -2.5823711723918742e-03
         - -4.1003750148237026e-05
         - -4.8083772254884534e-03
         - -1.2240579032203124e-02
         - -5.2369150982306597e-03
         - -3.4056641887518359e-03
         - -4.4186133045173437e-03
         - -2.4991600089101841e-03
         - 4.1433314011308587e-03
         - 3.8411863188762261e-03
         - 1.6701552003955907e-03
         - 4.4241688041887443e-03
         - -1.8705148642825049e-03
         - 9.9900900710628883e-03
         - -6.1015557920272526e-03
         - -7.4673065025942292e-03
         - -1.2482762577480596e-03
         - 1.0030673373822251e-03
         - 5.0207088018014105e-03
         - 7.7856154285501078e-03
         - -1.0406340267709823e-03
         - 3.1056116272610399e-03
         - -8.2986990965632172e-03
         - 3.3651468925848358e-03
         - 5.9736832562497918e-03
         - -9.7720331509412511e-04
         - -4.9135453308325671e-03
         - 5.2704139536535900e-03
         - -1.0049743829891576e-03
         - -9.4153448038055830e-04
         - 2.0388853139220275e-03
         - 3.3693142728279243e-03
         - 5.8267743602122488e-03
         - 8.7100940730892081e-03
         - -3.2665265240346998e-03
         - 1.3322592426725437e-03
         - -2.7165630828839306e-03
         - 5.3682430068781898e-03
         - 5.3979921656581464e-04
         - -1.8720076072989169e-03
         - 5.1711559269307442e-03
         - 8.1384180520778521e-03
         - -1.0596500025159873e-03
         - 8.7640193549708006e-03
         - 1.3988157334412036e-02
         - -7.9587448238693532e-03
         - -7.3244064382930346e-04
         - 1.3360838736132681e-02
         - 6.2791096385614587e-03
         - 1.8407917110925012e-02
         - 1.6492042197583007e-02
         - 1.3052778679414383e-02
         - 1.9367076460406505e-02
         - 3.5332910789784330e-02
         - -1.1669468177698519e-03
         - 4.4722337549616808e-03
         - -2.0929021677019185e-03
         - 8.9931042588649985e-04
         - 1.4276502995708041e-03
         - 2.7620100978527832e-03
         - -7.0388947176353110e-04
         - 9.7711177666649144e-04
         - -5.3195086742621779e-03
         - -6.9226200623895276e-03
         - -4.7181015111631090e-03
         - 2.1849464083777446e-04
         - -8.2104608274850138e-04
         - -1.8385716905664777e-03
         - 2.6376110105112492e-03
         - 2.9477413141613383e-03
         - -4.2576933112335718e-03
         - 3.9310118768245573e-03
         - -4.8368121787103089e-03
         - -5.9439962510824951e-03
         - -7.4346383394293045e-03
         - -8.7416797986365215e-04
         - -7.5273155813925944e-03
         - -7.0285467554849481e-03
         - -1.8011547360542667e-03
         - -6.1680708400518392e-03
         - -1.2265160567312359e-02
         - -8.1664421968608222e-03
         - -1.6811176733166438e-02
         - -1.4470095518477740e-02
         - 2.4513608555444821e-03
         - 2.6726132642126894e-03
         - -1.8612791382416902e-03
         - -1.7540103543033439e-03
         - 2.7770870829999903e-03
         - -1.0482994903608742e-04
         - -3.2917844678536637e-03
         - 6.0000135601060729e-03
         - 6.2122937374283638e-03
         - -2.2255076743110868e-03
         - -2.3350077009205158e-02
         - 2.4672351415733307e-03
         - -1.4734600450613648e-03
         - -1.2180068224245584e-02
         - -4.8908986567063086e-03
         - -1.4757332087523771e-02
         - -1.9085027915715924e-02
         - -3.2946478755115651e-03
         - -2.6551417731619033e-02
         - -2.8494790131810298e-02
         - 3.2879288978185863e-03
         - -8.7313100761024804e-05
         - 1.8336743748458863e-03
         - -6.1789521238535890e-04
         - -1.2752381554071647e-03
         - 6.2909288868533628e-03
         - 2.7081740793738411e-03
         - -1.8351482241467331e-03
         - 1.2138383821235063e-02
         - 7.8808890904680743e-03
         - 2.3387854991408802e-02
         - -4.9169137528964476e-03
         - 1.9109105741973627e-03
         - 1.2790926331677582e-02
         - -4.5700772357483077e-03
         - 9.8138076211643673e-03
         - 5.7548172911904864e-03
         - 3.7319485663545779e-03
         - 1.6487606389757943e-02
         - 2.9650293982303580e-02
         - 6.3477371751635373e-03
         - 8.3314083551081428e-03
         - -4.3862207006965500e-03
         - 6.8523465118693191e-03
         - 4.3824638593384395e-03
         - -7.0749801070224940e-04
         - 1.5309854076318765e-03
         - 1.6318056593158719e-03
         - 7.4016406440281634e-03
         - 1.2907158678036695e-02
         - 1.3328262626925425e-02
         - -5.4541527728751591e-03
         - -1.5840197977086033e-04
         - 1.2914943266599888e-02
         - -3.5620246305260524e-03
         - 4.1176136116513884e-03
         - 9.0014143894399240e-04
         - 4.0429302300656741e-03
         - 1.1858309085278171e-02
         - 2.0480069581375323e-02
         - 8.0895278503216612e-03
         - 1.4230470935046691e-03
         - -2.9633587472881482e-03
         - 1.3896531055023689e-02
         - -3.2250110201138171e-03
         - 1.0052733318346677e-02
         - 8.3581120951272867e-04
         - 9.4983037943898087e-03
         - 1.3790275900085774e-02
         - 1.8700305058561514e-02
         - 8.0576514602568230e-03
         - -6.6763402314140904e-03
         - 3.0966606497630699e-03
         - 6.2019098622019949e-03
         - 6.2940816014347891e-04
         - 1.7121598283555885e-02
         - 2.5509280043482878e-03
         - 4.5678753177076205e-03
         - 1.1043440868431271e-02
         - 1.6562065365377451e-02
         - -1.0619461769131285e-02
         - 9.7658433461236013e-05
         - 2.6861421301383023e-03
         - -1.1597721169063598e-02
         - -1.6220999638170064e-03
         - -1.7384781813002768e-02
         - -1.9926848808712633e-03
         - -9.3940625576496659e-03
         - -1.2593561784803121e-02
         - -1.6748744838119840e-02
         - -9.0991565514967586e-03
         - -3.5000664821985684e-03
         - 6.0335718963385517e-03
         - -9.9126817208792326e-03
         - -7.2699774790731713e-03
         - -1.2370460198461837e-02
         - -2.5579210269657419e-04
         - -5.0558755591220443e-03
         - -1.7546603363635435e-02
         - -1.4924920113865309e-02
         - 5.9112559178735374e-03
         - 2.9161615789500466e-04
         - -3.3625009123472516e-03
         - 8.7605186176753138e-03
         - 9.0292631383189735e-03
         - 9.2791619914931022e-03
         - 9.0486422299774823e-03
         - 9.1889534278868767e-03
         - 1.5446450695202164e-02
         - 2.7328768838437361e-02
         - 1.3436897486455801e-02
         - 2.1790638460065532e-03
         - -9.6212488881345284e-03
         - 1.5669780148797770e-02
         - 1.2964831263662302e-03
         - 7.0117545093465331e-03
         - 1.9265921466785959e-03
         - 5.5719445065559653e-03
         - 5.4134292696189912e-03
         - 1.2384075460898319e-02
         - 4.0324722755306691e-03
         - 8.4360360152705705e-03
         - -3.2027360752167932e-03
         - 9.9596323388396260e-03
         - 9.7653341364738674e-03
         - 7.1540697009048957e-05
         - 7.7113345436232864e-03
         - 3.8810733836676112e-03
         - 2.3011643273707586e-03
         - 1.2294059612641909e-02
         - 4.3669646021513887e-03
         - -5.2819658622369437e-03
         - -1.7472514796014586e-03
         - 2.3650758059236054e-04
         - -4.2316558656953582e-03
         - 1.8332233708678303e-02
         - 3.0936566453647605e-03
         - 5.2108945456658595e-03
         - 1.5519814912776621e-02
         - 2.1054337386915391e-02
         - -5.5566632412293521e-04
         - -1.7873154893130684e-03
         - 2.5220838208697863e-03
         - -1.0914116922624024e-02
         - -7.5949591351907929e-04
         - 4.4690140720916732e-03
         - -5.4236632582584533e-03
         - -1.0266097877024878e-04
         - -3.7301774783073038e-03
         - -7.3883470908073191e-03
         - 7.2680180666269726e-04
         - 4.9928946845611043e-03
         - 3.3031966061593120e-03
         - -7.1963350270668365e-03
         - -3.5149647372323452e-03
         - -7.2825405262754552e-03
         - -1.3643188552424142e-03
         - 7.2649721964795876e-03
         - -6.2081127300951441e-03
         - -6.0094285154579860e-03
         - 6.5142640577808067e-03
         - 1.3277926305169392e-03
         - 2.1562354404961455e-03
         - 1.1612313545237457e-02
         - -2.0977424398850053e-03
         - 1.1918475431754309e-02
         - -5.4521962472398500e-04
         - -9.5393548914131712e-04
         - 1.3328900285045794e-02
         - 1.9640287048878810e-02
         - 4.0778158853825549e-03
         - 9.7932611522246978e-04
         - 1.5892078904156069e-03
         - -3.5789205295846116e-03
         - -1.8003028857138692e-03
         - -4.9856947530805087e-04
         - -6.2820273104255177e-03
         - 2.5476842245998397e-03
         - -2.6374624699128826e-03
         - 1.6884042564712631e-04
         - -7.8397468857333147e-03
         - 6.2618350380913299e-03
         - 4.9315205550646765e-03
         - -4.5663997038276855e-04
         - -7.0996157903121943e-03
         - -5.8285238963595148e-03
         - -1.8008446185714651e-05
         - 1.8365859463220554e-03
         - -1.3177354801649423e-03
         - -3.5091622490659971e-03
         - 8.8023422479256031e-03
         - 4.4684913715179820e-03
         - -9.5181316595880955e-04
         - 7.8269510394814862e-03
         - -1.7980894732991612e-04
         - 9.0869379674932034e-03
         - -2.1194955939409592e-03
         - 4.5255791536666220e-03
         - -3.0646759695928004e-03
         - 1.1026128215183804e-02
         - 5.0431075862840003e-03
         - 2.3027535131286236e-03
         - -6.7600665353758620e-03
         - 2.3153462054336872e-03
         - 2.9186025340453394e-03
         - 1.7095141124220954e-02
         - 1.1400106903496219e-02
         - 6.3579968956147884e-03
         - 6.1702519173048552e-03
         - 1.9230783522853422e-02
         - 3.8786564375023389e-03
         - 5.5966217313018476e-03
         - 1.8582227438732610e-03
         - 7.9358474287351908e-03
         - 4.4789148932095875e-03
         - 1.9555590751744734e-03
         - 6.4729852809656974e-03
         - -9.1962796276932315e-05
         - 7.6592742940499812e-03
         - 1.8600375660110852e-03
         - 7.0507869443636141e-03
         - 4.6957211714234169e-04
         - -5.5609199105315808e-03
         - 5.6199577932687509e-04
         - 2.4453678394012234e-03
         - 1.1692479744742430e-03
         - 4.4329495127004978e-03
         - -1.8750768459420372e-03
         - 3.9984651325831637e-03
         - 6.0806396340671127e-03
         - 1.4422018704486471e-02
         - -8.7882361548521221e-03
         - 5.8711364274903260e-03
         - 1.0552836733978093e-02
         - 2.4852834326484171e-03
         - 1.2081712937963989e-02
         - 1.3351552897861654e-02
         - 9.9674555796647212e-04
         - 2.1436156894046193e-02
         - 3.6580268832683518e-02
         - -2.8567895425165791e-02
         - 1.0533875205667356e-02
         - 1.0549538576349799e-03
         - -2.6396764071350231e-02
         - -6.6804763180662802e-03
         - -2.8183062843932627e-02
         - -2.0331394471999446e-02
         - -1.1003445545779625e-02
         - -4.4633883325377051e-02
         - -6.0642289665858079e-02
         - -7.5822829379914901e-03
         - 2.6045248569284180e-03
         - 9.9907398409098160e-03
         - -5.3736982330099990e-03
         - 4.0532018091637327e-04
         - -8.0970120957290018e-03
         - -4.7765500427918014e-03
         - -4.0137557945756474e-03
         - -4.9302233204202642e-03
         - -1.5418194868529073e-02
         - 1.0521457211235539e-02
         - -6.2513751510440635e-03
         - -8.4369694620169621e-04
         - 8.0189821241283387e-03
         - 1.7452459285560964e-04
         - 1.5134010499057307e-03
         - 5.8007338045204049e-03
         - 7.8452633935952622e-03
         - 2.0949308273765510e-03
         - 1.7651247782844673e-02
         - -1.5135078079970707e-02
         - 7.3261484707159118e-03
         - 8.7256153539190685e-03
         - -1.7521676723653054e-02
         - 3.9748387111652730e-03
         - -2.0169964149475826e-02
         - -1.1195433225060065e-02
         - -6.0577134971121563e-03
         - -1.7368966128353872e-02
         - -2.8826908364488067e-02
         - -1.6924566560162170e-03
         - 3.9156874117916970e-04
         - -1.3790847724810080e-03
         - -3.8364682193417548e-03
         - 5.4238986209139356e-03
         - 4.5164158634275614e-03
         - -3.2462820216830122e-03
         - 2.7614301164081956e-03
         - -3.6896936796724971e-03
         - 1.3065977569966582e-02
         - 2.9894684854853443e-02
         - -4.1546287971245526e-03
         - -3.0817857547600991e-03
         - 2.0095466150640541e-02
         - 3.8043855258388577e-03
         - 2.6110541778500199e-02
         - 2.5041855689089444e-02
         - 1.0102807146670974e-02
         - 2.9759418992651443e-02
         - 4.6445805871913659e-02
         - -1.0993393830625102e-02
         - 3.3585529062925431e-03
         - -2.9999284210635471e-03
         - -6.0293564694907289e-03
         - 1.5850245968099933e-04
         - -6.2428042715797979e-03
         - -7.5869969065753967e-03
         - -3.0651802763637537e-03
         - -1.2702649376181227e-02
         - -1.1062440820996271e-02
         - 9.3944053565437023e-03
         - 1.6032742181854547e-03
         - 5.0923192227288836e-03
         - 1.3170980809214887e-02
         - 4.1180697163801386e-03
         - 1.8700087688853721e-02
         - 1.3668085041768266e-02
         - 2.2014030486981018e-03
         - 9.2151804460039229e-03
         - 2.1209877177707819e-02
         - 7.8392086764950721e-03
         - 1.8079290510123194e-03
         - 2.6225261154923987e-03
         - -1.7063961257573607e-03
         - 8.4571282843233214e-03
         - 3.2883046842446442e-03
         - 5.3197472744025680e-03
         - -2.3017135516107180e-03
         - 3.7808008122943966e-03
         - -2.6577900859900555e-03
         - -7.6053793283530459e-03
         - -6.4916686798643436e-03
         - -7.3684254548694204e-03
         - -5.7511101868612732e-03
         - 4.3019394685786718e-03
         - -3.4077904379246926e-03
         - 6.9424598523781184e-03
         - -4.4532894139384851e-03
         - -6.3865909021414823e-03
         - -5.4898859779272773e-03
         - 1.0554598675349698e-02
         - -6.8013778974161995e-03
         - -5.9307460495962921e-03
         - 1.3946243930936602e-03
         - -7.4081586055318909e-03
         - -1.6126963023661199e-04
         - 5.4628766914761320e-04
         - -2.5757409964263425e-03
         - 8.4514396136439116e-03
         - 5.1586620722609364e-03
         - 6.7060785295068566e-03
         - -1.1639398196498501e-03
         - -7.3210501842048024e-04
         - 2.6946312378019490e-03
         - -1.9832994136655966e-03
         - 7.4896422921476250e-03
         - 1.3536624500655983e-03
         - 7.6683735647464554e-03
         - 7.0545247956298220e-03
         - 1.6316112169692962e-02
         - 1.0793475425911450e-02
         - -8.6846849153663199e-05
         - 5.0370182760069637e-04
         - 1.0559915330304499e-02
         - -4.7735097786689466e-03
         - 1.1743659391708955e-02
         - 1.1159070562822438e-02
         - 1.1847642560172062e-03
         - 2.3636650472410106e-02
         - 2.2763964723293215e-02
         - 1.6963360457769604e-02
         - -6.2505791684695968e-03
         - 3.3529928366109315e-03
         - 1.8587935410280153e-02
         - 7.1180749557006803e-03
         - 1.9429336458881161e-02
         - 6.5558101884280644e-03
         - 1.1840211222428218e-02
         - 2.4259652408362711e-02
         - 3.3031780623954177e-02
         - 3.8226154036029407e-02
         - -3.3745568054008072e-03
         - 2.8680922722573517e-03
         - 2.9248380460368057e-02
         - 9.5001545823769802e-03
         - 4.0288506646259402e-02
         - 2.2857914241276606e-02
         - 1.5367846445984528e-02
         - 3.5605634191396077e-02
         - 6.1761952048888936e-02
         - 6.4068848016221452e-03
         - -4.1587113356836370e-03
         - 2.1860273253485198e-04
         - 1.0395039169648122e-02
         - 4.6840145509209567e-03
         - 8.8937828210849008e-03
         - 1.0784193171801912e-02
         - 8.5896616960313248e-03
         - 1.4945465228877249e-02
         - 1.7744701908845056e-02
         - -1.4903069685607751e-02
         - -2.5023666744233906e-03
         - 5.9575659327875613e-03
         - -1.1629667365924360e-02
         - -6.3364238420943533e-03
         - -1.4913099927255787e-02
         - -2.1547773769814242e-04
         - -6.4146686607495394e-03
         - -6.3358112798108908e-03
         - -1.8335553197821156e-02
         - -2.9084839152435763e-02
         - 2.7879680031774896e-03
         - -2.9418674249755672e-03
         - -2.8993719665039656e-02
         - 4.8959110334420674e-05
         - -2.6868791291146912e-02
         - -7.8742686050673229e-03
         - -7.2771725303976973e-03
         - -3.9063517876137800e-02
         - -5.3824625775059795e-02
         - -1.3392457341528552e-04
         - 1.9994967772041152e-03
         - 5.3865576814094568e-03
         - 2.4815539082187663e-03
         - 3.9720787684432383e-03
         - -7.0767849401004741e-03
         - -5.8843797573985765e-03
         - -2.4292935829860786e-03
         - 2.1126675490223809e-03
         - -2.9886814457280989e-03
         - -1.3355864133115635e-02
         - 8.0334937893695047e-03
         - -6.0658406340063551e-04
         - -5.1731318841710160e-03
         - 2.8547604397694006e-03
         - -1.1926065834839787e-02
         - -3.7855722851352115e-03
         - -7.2832123420765449e-03
         - -1.5927024160600257e-02
         - -1.9878658257499557e-02
         - 6.8122232516991989e-03
         - -2.3375751609990532e-03
         - 9.6482826363914826e-05
         - 5.7283187112746473e-03
         - 5.8021172236917768e-03
         - 5.4824976297103188e-03
         - 6.9747430401158467e-03
         - 4.6623136478739415e-03
         - 2.3414599922527675e-03
         - 6.4991735793783513e-03
         - 1.8780710934128694e-02
         - 3.5644365487725841e-03
         - -7.2514417034278073e-03
         - 1.5311956336549691e-02
         - -5.0551933426562718e-04
         - 2.0857673711004481e-02
         - 5.4770029110577214e-03
         - 1.2522305502736284e-02
         - 2.0674632133146627e-02
         - 2.5783171109440749e-02
         - -2.6366216192127462e-03
         - 1.6243956336814142e-03
         - 7.5887188191306135e-03
         - 1.6674727613932997e-03
         - -7.2641785460025483e-03
         - -6.4529318002817127e-03
         - 5.3293597309167669e-03
         - -5.0734861374125877e-03
         - 2.6839645218771843e-03
         - -3.6838487419766880e-03
         - 5.2680863549751976e-04
         - 4.9483912326169829e-03
         - -6.2032984692821499e-03
         - 4.7062546614165751e-03
         - -2.0884397691310294e-03
         - 4.3866351285085960e-03
         - -3.6614020738270840e-03
         - 6.2764935478817454e-03
         - 6.6384130029214334e-04
         - 1.5132972530576910e-02
         - -1.1435559214064417e-02
         - -4.2123645204105650e-03
         - 2.1521676666395114e-03
         - -1.6118878069746181e-02
         - -2.7385473538175677e-03
         - -7.2914022143483323e-03
         - -1.0926856417847786e-02
         - -6.2797161239711002e-03
         - -7.9687964636585198e-03
         - -1.9507303126064208e-02
         - -1.0485491297495394e-02
         - 4.2301070986878531e-04
         - -1.3941937472818297e-03
         - -1.0928426752205372e-02
         - 9.5581518520205741e-04
         - -9.0815540839087276e-03
         - -3.0494501992914306e-03
         - 6.0178215908465869e-05
         - -9.8481270929326268e-03
         - -6.2772998428647104e-03
         - 1.0827313097426034e-02
         - 1.5467689034936402e-03
         - -3.4120158089793592e-03
         - 1.7910060227309395e-02
         - 1.5107681374485491e-03
         - 1.4412296734473551e-02
         - 9.0591010392534754e-03
         - 6.0809139113403923e-03
         - 1.2653407642045296e-02
         - 2.5377775049720878e-02
         - 2.2363093414058250e-02
         - 3.7692288931740576e-03
         - -3.3315474709690908e-03
         - 2.7327886138969561e-02
         - 9.1648958934095054e-03
         - 3.0090315170414401e-02
         - 2.0033313152874394e-02
         - 7.0256224541130645e-03
         - 3.3847738115222181e-02
         - 4.2233511470507662e-02
         - 3.9366453563289529e-02
         - -1.2643790237758287e-03
         - -4.8537158284041237e-03
         - 2.6588587942873006e-02
         - -3.7270010054416183e-03
         - 2.9008301440736718e-02
         - 1.8671472677951131e-02
         - 1.4333824574746312e-02
         - 3.3067496660655504e-02
         - 6.5369916374504872e-02
         - 3.7696325571293779e-02
         - -6.2378474443893659e-03
         - -7.1767359628741286e-03
         - 3.2382346770299927e-02
         - 7.4298551247630731e-03
         - 4.8671360580493199e-02
         - 1.7128211582259318e-02
         - 1.9167165081550534e-02
         - 4.8336577023563344e-02
         - 7.3415450012105865e-02
         - 2.5088691295168303e-02
         - -7.1821140944216091e-04
         - 3.4843499221518127e-03
         - 1.8673472218411508e-02
         - -1.3986503285124293e-03
         - 2.2198787280293210e-02
         - 1.2149976952741113e-02
         - 1.4194134001087223e-02
         - 3.1307752430155752e-02
         - 3.8942432765049412e-02
         - 8.6602309571487558e-03
         - 6.6939550352993378e-03
         - 1.3605184441050884e-03
         - 1.2452490729891486e-02
         - -9.4859490015999752e-04
         - 5.7974080543367369e-03
         - 3.4459512830058328e-03
         - -2.3797377737839938e-04
         - 1.2600748724550314e-02
         - 2.3077915238293313e-02
         - -2.2767958606151419e-02
         - -1.8093291686921433e-03
         - 2.1923555937365074e-03
         - -1.1388858225618231e-02
         - 2.6026304306769133e-03
         - -2.7517894911687997e-02
         - -1.3220506283816857e-02
         - -7.6010913667433587e-03
         - -2.8355110685471092e-02
         - -3.3978175587119512e-02
         - -2.2044753325649643e-02
         - 6.6600315118319235e-03
         - 4.6781668258928637e-03
         - -1.7263026814695829e-02
         - -4.4813690116366281e-03
         - -2.2933332979879338e-02
         - -1.3477396602284928e-02
         - -1.1950483699231957e-02
         - -2.8876114974140155e-02
         - -4.0536834914659405e-02
         - -2.3985952101345562e-02
         - -2.0677153952352156e-03
         - 2.0337257167379968e-03
         - -1.5544876555568680e-02
         - -6.7098821064373385e-03
         - -2.1196745479771659e-02
         - -9.5366300862314343e-03
         - -1.2616055969880873e-02
         - -2.3620556414038891e-02
         - -4.0730815011942603e-02
         - -9.6744702954532722e-03
         - -4.0143525572904522e-03
         - -3.0157394622368078e-03
         - -9.3495038402317352e-03
         - 6.3258877427238213e-03
         - -1.3099779317616706e-02
         - -5.6079083621764607e-03
         - -3.1472025674687959e-03
         - -1.4651916969766140e-02
         - -1.1846684088562496e-02
         - -1.9634593628355353e-02
         - -2.7866797440489913e-04
         - -4.6850562057229369e-03
         - -1.8282447004029138e-02
         - -1.6378706804664074e-03
         - -1.9338996095481058e-02
         - -5.2767180145660434e-03
         - -4.1473887078354553e-03
         - -2.0732146832496193e-02
         - -3.1602088287861901e-02
         - 6.0897904826904175e-03
         - 5.8561353346272427e-03
         - 5.5557652556643498e-03
         - 2.8740680757436327e-03
         - -7.0745178344525496e-05
         - 7.2429252908739203e-03
         - -4.3897248473997539e-03
         - 8.0102528751367242e-03
         - 5.6632467182848598e-03
         - 1.5302629814425428e-02
         - 2.0775788822894548e-02
         - -1.3107986040599126e-04
         - -4.9946303251093369e-03
         - 2.3208001205174966e-02
         - 7.9853199493517719e-03
         - 2.2286704234372359e-02
         - 9.6844113428247898e-03
         - 1.6968348650479022e-02
         - 2.5387703549622845e-02
         - 4.1752567010094235e-02
         - -1.0018534887476472e-03
         - 6.3900676177551961e-03
         - -1.0072625454376222e-02
         - -4.2437159271651722e-03
         - 4.9865304309688694e-03
         - -5.7272509702811164e-03
         - 1.9212752321906283e-03
         - -1.8379935546039346e-03
         - -2.8577386501929388e-03
         - -1.4607810128152337e-02
         - -8.5551968197588256e-04
         - 4.6380243381040787e-03
         - 4.8022744390919620e-03
         - -6.7757074503161079e-03
         - 6.8310881106258708e-04
         - -2.4118891656409098e-03
         - -2.3496923485439641e-03
         - 4.2641309385915349e-03
         - -8.5001895366890248e-03
         - -1.1927984674787690e-02
         - -4.9842236172324876e-03
         - -4.0698458361325988e-03
         - 3.1899874124530873e-03
         - 5.6728767437185478e-04
         - 6.6763340681208630e-03
         - -2.6135299899657061e-03
         - -1.6818450668880435e-03
         - -2.5759990884969431e-03
         - -1.3866831521231502e-02
         - -9.0248466198675215e-03
         - 6.7084492402913814e-03
         - -4.5684906244892994e-03
         - -6.9524409981126659e-04
         - -3.5702542812677640e-04
         - 1.5902616345127388e-04
         - 1.0558801759819002e-02
         - 8.5116269079133309e-03
         - -2.1521899199503885e-03
         - 1.0170130977108180e-02
         - 1.4447275960953080e-02
         - 2.0646793724906083e-02
         - -1.1182906082690032e-03
         - -7.2826273290193689e-03
         - 1.0539243872219821e-02
         - -1.1802288547269940e-03
         - 1.7793051814131478e-02
         - 4.1913038110879654e-03
         - 5.1814686166264537e-03
         - 1.6018497770526042e-02
         - 2.2527516495954095e-02
         - 3.8994709309152852e-02
         - -6.7781595414614050e-03
         - 1.4081460090149987e-03
         - 3.5712459788097332e-02
         - 1.0755348122352218e-02
         - 3.9214830962127863e-02
         - 2.1030909637165328e-02
         - 1.4154741663720204e-02
         - 4.4045046487889747e-02
         - 6.4450347384778284e-02
         - 2.7907048408431695e-02
         - 6.4561278257926034e-04
         - 2.6546177310066538e-03
         - 2.3867116995606626e-02
         - 6.7955551278095164e-03
         - 2.0683088210679941e-02
         - 1.2697747351334672e-02
         - 4.4304502587709932e-03
         - 3.4411136350856159e-02
         - 4.8119895665350514e-02
         - 6.3701786431194323e-04
         - -9.8524622063260415e-04
         - 2.9660551696497313e-03
         - -1.1106105090362604e-05
         - 2.1098134015943913e-03
         - 4.2230678003609265e-03
         - 4.3397470906451838e-03
         - 5.4700924471048412e-03
         - 1.2235294732186538e-02
         - 4.1626296978954343e-03
         - -1.4762583862517357e-02
         - 5.5808305909594040e-04
         - 1.5054947681798470e-03
         - -2.9307333329043513e-03
         - 1.5253048313513746e-03
         - -1.3849873355522520e-02
         - -2.7938378902506123e-04
         - -8.0838116394932741e-03
         - -1.5811597488681252e-02
         - -1.2586622374553985e-02
         - -6.5365770631521198e-03
         - 4.3120976282668815e-04
         - 2.8923597370562916e-03
         - -9.8398376957354698e-03
         - -2.3032113279086029e-03
         - -1.6663172663188217e-02
         - -1.1820364969893190e-02
         - -4.8861595265085791e-04
         - -5.7701813313938500e-03
         - -1.6498244540897863e-02
         - -4.1429709474408802e-03
         - 5.1089103051025608e-03
         - -4.4522304209889414e-03
         - -1.4894306668005586e-02
         - -1.7526986101647002e-03
         - -1.4824816688001233e-03
         - -8.1862994581646184e-03
         - -6.0151360497684263e-03
         - -1.0478655981600294e-02
         - -8.0294175346370608e-03
         - 4.6945892737370685e-03
         - -7.7841325187028160e-03
         - -6.6634928453984292e-03
         - 3.3903221737599846e-03
         - -3.2687692816592062e-04
         - -9.4118195300073413e-04
         - 3.8875259063579867e-03
         - 3.7818829004869496e-03
         - 2.9979510837751530e-03
         - 1.7199746232727034e-03
         - 6.0531573536096832e-03
         - -4.2485473341382713e-04
         - -3.9099616939104968e-03
         - 7.0795731322736092e-03
         - 3.9445545727117785e-03
         - 4.9370518166124925e-03
         - 4.3668068592464864e-03
         - 5.5803779711457221e-03
         - 9.2946809474361153e-03
         - 3.7662644608613314e-03
         - -4.1534771303466996e-03
         - 2.2983883388492539e-03
         - -6.3935480190907600e-03
         - -4.1753334404078211e-03
         - -7.3937286411205278e-03
         - -5.6073269346997379e-03
         - -7.0743125388457451e-03
         - -2.4273715516518390e-03
         - -8.6030292880120429e-03
         - -2.0131555491884685e-02
         - 2.2364476709510642e-02
         - -1.0860762481936543e-03
         - -2.7102048968887685e-03
         - 2.1862844864082999e-02
         - -2.9377029444967889e-04
         - 1.3327448143596149e-02
         - 7.3748520338897724e-03
         - 5.8357697285758908e-03
         - 1.6921008580802956e-02
         - 2.5070643962391365e-02
         - 5.8670610893870783e-03
         - -1.0316155026879275e-02
         - -2.5106867361029488e-03
         - 1.2925132580039352e-03
         - -9.2815511460387051e-04
         - 1.3516942455386340e-02
         - 3.7640131338775857e-03
         - 1.0445370849475555e-02
         - 9.7461559039529865e-03
         - 1.0222863743261749e-02
         - 2.1767615140997277e-02
         - -2.9295069040149047e-03
         - -2.9210540490436487e-03
         - 2.1077866844360936e-02
         - 7.9566392699138878e-03
         - 1.1745065576202272e-02
         - 5.4224284068475478e-03
         - 6.4649252300688648e-03
         - 2.3703112705606204e-02
         - 3.3825762623603817e-02
         - 1.1908348830827848e-02
         - 3.7868407321401251e-03
         - 1.5922157172983528e-03
         - 2.7046076622454299e-03
         - 6.7939653044621047e-03
         - 8.5781680228509995e-03
         - 7.0675116708720379e-03
         - 1.0121758046605391e-03
         - 1.6171707885896992e-02
         - 1.2254101706448032e-02
         - -5.0914295383326308e-03
         - -9.9013330613065558e-04
         - -2.7255245808385565e-03
         - 7.4921355324121649e-04
         - -3.6983059000816492e-03
         - -1.0658014101230046e-02
         - -5.8886635887705138e-03
         - -6.6711809584306392e-03
         - -1.1807495913601291e-02
         - -9.0715049937072460e-03
         - -1.4975164636536255e-02
         - 6.7366098686228379e-03
         - 4.1084753527713021e-03
         - -1.4060898260674729e-02
         - -6.1146907329177251e-04
         - -1.6444195528012885e-02
         - -1.3840983991486056e-02
         - -1.0117084094836000e-02
         - -1.9770241831015875e-02
         - -3.2037049239094222e-02
         - -1.4494037730730760e-02
         - 4.0105103845043573e-03
         - 1.2551413707437853e-03
         - -2.2995536603107741e-02
         - -5.4220164503194805e-03
         - -2.3382203613678858e-02
         - -1.0211210167714851e-02
         - -7.1006936019422408e-03
         - -2.1587837584015709e-02
         - -3.8899965809222871e-02
         - -1.1754990171376296e-03
         - -2.0770126678289159e-03
         - 3.2983588567301585e-03
         - -3.6780802501204159e-03
         - -6.8460155914528229e-03
         - 2.0723983175827579e-03
         - -2.9112991399179331e-03
         - -6.4671564930735455e-03
         - 1.3442425528975355e-03
         - 1.9979867014967940e-03
         - -2.8573406135213787e-02
         - 2.8148106056116360e-03
         - 1.3497482448511738e-03
         - -3.3752374208366985e-02
         - -8.5354175431540929e-03
         - -3.6135060866465396e-02
         - -1.6201474836290856e-02
         - -1.6761440146420715e-02
         - -3.3840190568332047e-02
         - -5.3959740546399210e-02
         - -7.7580361478615974e-03
         - -7.3461191103730341e-05
         - 5.3285342773342938e-03
         - -1.8752294077568291e-02
         - 4.0955554577995035e-05
         - -8.7668218697431154e-03
         - -1.0895184812828373e-02
         - -8.8925079166970247e-03
         - -1.0909391955010114e-02
         - -2.6217242251166600e-02
         - -1.5837058857421753e-02
         - -6.5494292447383103e-05
         - 4.0707359930360915e-03
         - -7.8272465107210275e-03
         - -1.2822974285108283e-03
         - -2.0540165217619422e-02
         - -6.1975820035031111e-03
         - -1.1585703561900801e-02
         - -2.1519620609101717e-02
         - -3.2849159943840391e-02
         - -3.5694360558724682e-03
         - 1.1463146190070833e-03
         - 3.0573149221323976e-03
         - -9.2907166562897683e-03
         - -4.7796580754397842e-04
         - -3.5546327758081294e-03
         - -7.5695465346081155e-03
         - -5.5489826020545486e-03
         - -1.2931127307890580e-02
         - -1.7233710371010919e-02
         - -1.2418199337764136e-02
         - 8.0038543933703011e-03
         - 5.7228306894828605e-03
         - -2.3012907865265671e-02
         - 3.3719250811323894e-03
         - -1.6732594296782068e-02
         - -1.1337293995538575e-02
         - -5.1026247671340308e-03
         - -1.3647093709659172e-02
         - -2.7733151854355341e-02
         - -5.4165236294103419e-03
         - 1.0351721213968431e-03
         - 2.6090036904891077e-03
         - -4.6644520859290255e-03
         - 3.2343033085304495e-03
         - -6.4427970206560343e-03
         - -3.1396654516425882e-03
         - 5.8188782918263179e-03
         - 3.7914993395543720e-04
         - -5.5475679956764118e-03
         - 1.1392745111320286e-02
         - 5.1169865614126659e-03
         - 4.6711340956078025e-03
         - 1.4123007368094463e-02
         - 6.6815953430372959e-03
         - 1.9743286684424474e-02
         - 6.5257549379301076e-03
         - 7.1702416799929039e-03
         - 1.9693102867511272e-02
         - 2.8193997062297207e-02
         - 1.1587391618452802e-02
         - -4.1428972422080969e-03
         - -8.6694785502171405e-03
         - 1.2153388431194213e-02
         - 1.7859405924239031e-03
         - 1.5392836453210964e-02
         - 9.2031288576545772e-03
         - 2.4182021553215754e-04
         - 2.1190074871376800e-02
         - 2.1007320698650231e-02
         - 8.5246494096995334e-03
         - -4.1454297583259237e-03
         - 4.4757228257490331e-03
         - -1.2276452319190268e-03
         - 3.4819011036014490e-03
         - 5.0775972487186382e-03
         - -3.5167143809745876e-03
         - 4.8814109640156903e-03
         - 5.0309449664512809e-03
         - 1.8186169952864356e-03
         - 1.3061028562737921e-02
         - -1.0965095317632574e-03
         - -6.9787781287905283e-03
         - 9.9363813263446277e-03
         - 3.9425684457304487e-03
         - 1.2840362229026273e-02
         - -1.2169294545157922e-03
         - 6.6596158201477575e-04
         - 6.1962853647809625e-03
         - 1.5640206090464823e-02
         - -1.2123996096671751e-03
         - 6.4295099802732809e-03
         - 5.2078663042399572e-03
         - -6.0301411383849547e-03
         - 3.3690182391889071e-03
         - -7.0238233320757968e-04
         - -1.4886606172010248e-03
         - -2.6956599531273912e-03
         - -7.7627311112282256e-03
         - -1.3990642374402441e-02
         - 4.6967404983947547e-03
         - 3.2648655699512659e-03
         - 3.3176597828356736e-03
         - 6.5986375409152207e-03
         - 6.6096036050640218e-03
         - -8.7739802266005823e-04
         - -1.8652234710837318e-03
         - -1.4191934038516251e-03
         - -1.9221298755918834e-03
         - 2.8432202569340405e-03
         - -1.2641219715095960e-02
         - 9.0922277238224204e-04
         - -4.0829986533096755e-03
         - -1.0248142584338713e-02
         - -4.1563895783124525e-03
         - -1.2790207150038233e-02
         - -8.8094014330616453e-03
         - -1.0040867642068184e-02
         - -1.8852343317261055e-02
         - -2.8107932415077804e-02
         - -2.4284858727482532e-02
         - 5.2786553501103827e-03
         - 8.7176094865273820e-03
         - -2.5017727855338515e-02
         - -7.5769387946644394e-03
         - -3.7703612399783482e-02
         - -2.1628305078705671e-02
         - -1.3927757122839978e-02
         - -3.9987994185175284e-02
         - -5.4639398044193224e-02
         - 1.5254681105538266e-03
         - 4.8095806598259100e-03
         - -6.9192535750475940e-03
         - 1.2750854871915107e-03
         - -1.8237712593606027e-03
         - -2.5489627022999258e-03
         - -5.3736205249506263e-03
         - -7.4444123640667690e-03
         - 2.7675049820666936e-03
         - -5.0565402504782839e-03
         - 1.0270250802308645e-02
         - -3.0977061184992304e-03
         - 5.7983879437175315e-03
         - 1.1118857341036289e-02
         - 4.1676269711628158e-03
         - 1.3143249399054932e-02
         - 1.1395965908513935e-02
         - 2.3247302816363394e-03
         - 1.2644271404599283e-02
         - 1.7857555868614504e-02
         - -4.2936070564336272e-02
         - -5.9233323642536660e-04
         - 5.7588606796096361e-03
         - -4.4759474811387132e-02
         - -1.0477647025226031e-02
         - -4.7250192305178018e-02
         - -3.4061878923722845e-02
         - -2.0977998183735309e-02
         - -6.4945349319729118e-02
         - -8.1981367890698445e-02
         - -1.3887593363060452e-02
         - 4.2242191448016025e-03
         - 4.4492536249579138e-03
         - -1.2102437809872213e-02
         - 9.9418023516051768e-04
         - -1.4134539082402425e-02
         - -1.3702834841196094e-02
         - -9.7713350495206470e-03
         - -1.5730590045987140e-02
         - -2.8800606495870757e-02
         - 7.7746126076614231e-03
         - -6.2801367337951622e-03
         - 7.3438163986252747e-03
         - 1.1563152135266732e-02
         - -1.6713112510499204e-03
         - 2.4792270788104795e-03
         - 3.0740349308189174e-03
         - 8.3037893728723430e-03
         - 1.0842032043430141e-02
         - 1.1017359467718299e-02
         - -5.9612087839476620e-03
         - 3.0377725339057839e-03
         - -2.3344680286246813e-03
         - -1.2481547535924876e-02
         - -6.3107978372766412e-03
         - -1.0057354474382121e-02
         - -2.8997709979378681e-03
         - 5.1415080647327748e-04
         - -1.1319267759182574e-02
         - -1.4347614882682859e-02
         - -3.2053622268628068e-02
         - -1.2255831216323413e-03
         - -4.9175231101443069e-03
         - -2.5407661122604879e-02
         - 2.8433621806932706e-03
         - -3.2742130528633166e-02
         - -9.5756046281932142e-03
         - -1.4653491398584469e-02
         - -3.0642339536898620e-02
         - -4.8538955147979741e-02
         - 6.7163633987945897e-03
         - 1.8039963979828799e-03
         - 5.4074367715020904e-03
         - 3.6373765025592020e-03
         - -1.6664601376317951e-03
         - 7.4897268324774710e-04
         - -5.8918435039728094e-04
         - 5.9957234830743927e-03
         - 8.9170589384168584e-03
         - 1.1030482397930018e-02
         - 1.4231581346343170e-02
         - -4.8148296521668462e-03
         - 3.9947680857490902e-03
         - 4.0932726874763911e-03
         - -1.1565782448715236e-03
         - 1.4791457950335967e-02
         - 8.9856002943181079e-03
         - 7.3113702565585272e-03
         - 1.8299663502461726e-02
         - 2.1031240206439476e-02
         - -1.2465370737646931e-02
         - 6.2560455044578956e-03
         - -5.5037613828270802e-03
         - -4.6955157168382415e-03
         - 2.6548502669243232e-03
         - -1.1611552810599756e-02
         - -2.6784161021272813e-03
         - -4.0040183227403967e-03
         - -9.8753449555715050e-03
         - -6.7796426579855825e-03
         - 1.2176266809294289e-02
         - 6.3130848397250101e-03
         - 2.1058747423884270e-03
         - 1.0567703403606753e-02
         - -4.5096977358864533e-03
         - 9.3218384131886281e-03
         - 5.6598765084765268e-03
         - 5.3857965690219537e-03
         - 5.6814288499049152e-03
         - 1.1328813729570895e-02
         - -3.9164717171173078e-04
         - 4.3255366431882679e-03
         - 1.5618076622383621e-03
         - -7.6938683352732592e-03
         - -6.9864962810409735e-04
         - -6.6395421378324928e-03
         - -5.0474272343098703e-03
         - -1.8558968480097413e-03
         - -7.5218185249647847e-03
         - -1.5198346965626155e-02
         - 7.2747258567383501e-04
         - 1.1460955399356786e-03
         - -4.1736906034994222e-03
         - 8.6669517129401141e-03
         - -1.2334686640377637e-03
         - 3.5510178818262844e-03
         - 3.9657617438517579e-03
         - 1.0059687304644488e-03
         - 3.7022242383623802e-03
         - 4.3629534361875342e-03
         - -3.2273859844668550e-03
         - -6.9180315574845757e-03
         - 4.1266597947254855e-03
         - 3.6559326587729400e-03
         - -1.2500975486851764e-04
         - 2.4941934712027730e-03
         - -4.5175756082060344e-03
         - 6.9315361955214413e-03
         - 6.7954582669121841e-03
         - 6.6808569573895502e-03
         - 1.2982878368131869e-02
         - -1.7156266524471116e-03
         - 3.5852067459210485e-03
         - 9.4235441952219053e-03
         - 5.1380188608568305e-03
         - 4.3286926807132153e-03
         - 9.9656175332934697e-03
         - -1.7199603523888663e-03
         - 7.5824848992454260e-03
         - 6.4916407380117185e-03
         - -7.6825701780236164e-03
         - 1.2247783005412254e-04
         - 2.1628991018481456e-03
         - -1.0367218122437837e-02
         - 3.9225695446084815e-03
         - -9.3417495812669702e-03
         - -1.0068008142332144e-02
         - -4.2971694575577131e-03
         - -1.4122462622921321e-02
         - -2.0518828484320933e-02
         - -1.2371788599219558e-02
         - -3.6781595149893956e-03
         - 6.5329244845298588e-03
         - -1.5563007408066709e-02
         - -1.0964298547692238e-02
         - -1.0529926515998860e-02
         - -9.8393753191811824e-03
         - -8.0650172867602829e-03
         - -1.6525030590847610e-02
         - -2.1352758986576442e-02
         - 2.1054490596492639e-03
         - 1.7556276777300258e-03
         - -2.2490981537066621e-03
         - 5.9195123632325448e-03
         - -5.9880620109798843e-03
         - 9.6602098256551294e-04
         - -3.0714065007641299e-03
         - -5.6058588834678085e-03
         - 1.1498036391283620e-03
         - -3.9714057735588939e-03
         - -1.5965409507794185e-02
         - 2.0262738343398287e-04
         - -1.3269322981478843e-03
         - -1.9481069781869170e-02
         - -3.0510758920308696e-03
         - -2.8778111931720585e-02
         - -1.3622580535116098e-02
         - -1.5205156976275112e-02
         - -2.2293509409697512e-02
         - -3.0998684529770906e-02
         - -5.6581505990310338e-03
         - -6.4980860683967864e-04
         - -3.0440796298861327e-03
         - 1.8196758869802327e-04
         - 5.0102358726328625e-04
         - -3.3494606559914394e-03
         - -3.5418873989614677e-03
         - 4.9099305368110035e-03
         - -6.2285642558924167e-04
         - -7.5891428937000863e-03
         - 1.5001064219351061e-02
         - -1.2349384533740491e-03
         - 5.5572171995077165e-03
         - 1.6687106805600978e-02
         - -5.8520580856730748e-03
         - 1.8971870301107207e-02
         - 1.3531931067710995e-02
         - 8.1715445883397200e-03
         - 2.0466793583900710e-02
         - 2.5245637036996338e-02
         - 1.6628083908166055e-02
         - -2.4057139011028914e-03
         - -3.3496062926886929e-03
         - 1.4430953711698148e-02
         - 1.7872249395356919e-03
         - 1.3531625456796278e-02
         - 1.2704276922364491e-02
         - 5.4983942674251282e-03
         - 1.4587820622022829e-02
         - 1.5639572644781947e-02
         - -1.6335390253379635e-02
         - 7.9578641466491445e-03
         - -5.8926097092458470e-03
         - -1.2439830658319663e-02
         - 1.3656242733576013e-03
         - -1.3336704865026696e-02
         - -3.4066490860404789e-03
         - -9.7503959022340551e-03
         - -1.9312577990071831e-02
         - -2.9976987933298938e-02
         - -1.5581026951530274e-02
         - 2.1918641574570977e-03
         - -4.6905105569943070e-04
         - -1.0847125951811684e-02
         - -3.2540122339605221e-03
         - -2.1671684024104514e-02
         - -5.8350362679097274e-03
         - -6.4681959411020474e-03
         - -1.9580497402030880e-02
         - -2.1288316887481670e-02
         - 4.9540476247521906e-03
         - -5.0021825745144646e-03
         - -7.7495899324803224e-03
         - 5.1655314402336830e-03
         - 4.1842034596784629e-03
         - 1.1301430120937806e-02
         - 9.3658448230391402e-03
         - -1.5037024080153159e-04
         - 1.3391770416626729e-02
         - 1.5102599335899932e-02
         - 1.2544132588158469e-02
         - -4.1262799038263740e-03
         - -3.5852714844016335e-04
         - 1.3219923261856949e-02
         - 7.1528998330284040e-03
         - 7.2724150176049999e-03
         - 1.1557656251309422e-02
         - 6.1414776004079770e-03
         - 9.2620362696568988e-03
         - 1.5412100837588236e-02
         - 3.6808943090245200e-03
         - 3.2426329013655318e-03
         - 2.7482277738454085e-03
         - 1.1162133978087619e-02
         - -4.4636191698471418e-03
         - 1.1871698755885205e-02
         - 4.4103128015381609e-03
         - -3.5948906080497927e-04
         - 8.0109071813483524e-03
         - 1.5786802155723336e-02
         - -4.3300525035120897e-03
         - -3.1075512592535861e-03
         - -5.6706269521815105e-03
         - -6.8937091959728834e-03
         - 5.3943521721809013e-03
         - 2.9344854098337660e-03
         - 1.1013940111343726e-03
         - -1.6447383585534415e-03
         - 5.1804835372060614e-03
         - -2.6059227706409188e-03
         - 1.0303722568386848e-02
         - 8.1477193291444637e-04
         - 1.2346949716251455e-03
         - -8.2942624478029464e-04
         - -7.4815124285032425e-03
         - 1.2424932351319425e-02
         - 5.1788101967017693e-03
         - 9.6156826225246572e-03
         - 9.2497159888568561e-03
         - 3.4201331746232951e-03
         - 6.3244211260757742e-03
         - -3.0963301250663982e-03
         - 3.8547049887833109e-03
         - 7.1775562846190981e-03
         - 6.1837329763654450e-03
         - 1.2438403267468753e-02
         - 1.4502402930660001e-02
         - 7.6901502299003771e-03
         - 2.5016230456811499e-02
         - 2.5193562080069540e-02
         - 5.0849903372060230e-04
         - -3.3155319630779317e-03
         - 4.2580937655914176e-03
         - -4.7243236529080947e-03
         - -2.4339882160816103e-03
         - -2.4260569209561384e-03
         - 3.9030990422771858e-03
         - -3.2248485759768552e-04
         - -9.7740557158046935e-04
         - -2.0632097143623677e-03
         - 6.2504889471983226e-03
         - -5.3125802630600268e-03
         - 4.5150036439299077e-03
         - 7.1773089039036172e-03
         - -5.1176963762271715e-03
         - 1.1285561327283583e-02
         - -9.7852367543508722e-04
         - 6.2103053629737016e-03
         - 1.7875062140764533e-03
         - 9.1573070652293219e-03
         - 8.3710740568303833e-03
         - 3.8149509532908921e-03
         - -2.7852536651457721e-04
         - 1.3209671066624356e-02
         - 3.6999499234332848e-03
         - 9.3176996352108792e-03
         - 2.8718538185669002e-03
         - 3.2367004118664285e-03
         - 1.4140360464072712e-02
         - 2.6586437412808313e-02
         - 1.5019145515041590e-03
         - 4.8164823100449051e-03
         - -3.8253066032223190e-03
         - -7.5495608331997699e-03
         - 5.0407923730065056e-03
         - 1.2018925404492938e-03
         - -6.6491970835564160e-03
         - 5.1097028019665112e-03
         - 3.2298941344553224e-03
         - -1.4002837602654673e-02
         - 1.0494352536339811e-02
         - -5.7992405078550232e-04
         - 8.1082340836551511e-03
         - 9.5076408782994032e-03
         - -4.7448143682013461e-03
         - -3.1608150439581808e-03
         - 8.5570582858285517e-05
         - -3.5290043998537982e-03
         - 1.2475069584932842e-02
         - 1.8672733513270337e-03
         - 2.3908067519314517e-02
         - -4.2551044285456504e-03
         - 3.4100094434940361e-03
         - 2.7860495609116024e-02
         - 1.0055325957361691e-03
         - 3.1387393228115040e-02
         - 1.3795974067040915e-02
         - 1.5685950229891619e-03
         - 3.6201511695686715e-02
         - 4.0102305585790282e-02
         - 2.1317166661294030e-03
         - 2.1836277670648349e-03
         - 4.3357597071944261e-03
         - 8.3329991858128814e-03
         - -4.7170091162018809e-03
         - 1.3093927728943621e-02
         - -2.7072718005832579e-03
         - 6.8960919271905032e-03
         - 5.7404972633181188e-03
         - 7.7820082303665453e-03
         - 1.1208405928244734e-02
         - -8.6547560389984637e-03
         - 1.8967416531727459e-03
         - 1.8646694063317166e-02
         - 3.1027735696959383e-04
         - 1.6331764951607382e-02
         - 1.5463027307360043e-02
         - 7.8237672836182631e-03
         - 2.1532835195423174e-02
         - 2.9900122988544043e-02
         - -1.4647497492302815e-03
         - -6.6128343920079163e-03
         - 7.4540035039511402e-03
         - -1.3619364391854231e-02
         - 1.5984576605119609e-04
         - -1.1608715348997566e-03
         - -4.8702419564677401e-03
         - -4.4438874496521789e-03
         - -1.1341431878799060e-02
         - -1.6293062523249916e-02
         - -1.1518905493457212e-02
         - 5.8164387646383823e-03
         - 6.0767776847549431e-03
         - -4.0465283435860630e-03
         - -2.1017977948849874e-04
         - -1.1710659887030321e-02
         - -4.1002970684242863e-03
         - -7.4353210119450551e-03
         - -8.5659684289580394e-03
         - -1.4459183459937004e-02
         - 7.5748480400962320e-04
         - -4.5184210486197496e-03
         - -6.9072391260554863e-03
         - -7.7561957113833656e-04
         - 6.2939526201266542e-03
         - 9.9834219695908982e-03
         - -6.1559166600551427e-04
         - 4.4858472457751087e-04
         - 7.9393438993352623e-03
         - 1.3307994700300271e-02
         - -1.4736375385532602e-03
         - 3.1771225337645461e-03
         - -2.7604270902781363e-03
         - 6.6415379727591487e-03
         - 3.2264484045538017e-03
         - 3.4527118839987139e-03
         - 1.5914052014417690e-03
         - 1.2636689152894683e-03
         - 8.7857036846033885e-03
         - 2.2467516478505934e-03
         - -3.7794060867530539e-03
         - -2.2005349930231391e-03
         - -8.3561354931727084e-04
         - -9.1268518920675015e-03
         - -2.8852809047041060e-03
         - -1.2154957378369354e-02
         - -7.1857158023196240e-04
         - -5.2888111544396607e-03
         - -7.3138319998094633e-03
         - -6.1993699985726913e-03
         - -1.3568587606992283e-03
         - -2.9467728992908370e-03
         - 6.0665008717117061e-03
         - -6.6831612649474745e-03
         - 7.2992243347410691e-03
         - -6.0587023544490274e-03
         - -1.2296022461001056e-03
         - 1.8882094090312976e-03
         - -4.5145536342523721e-03
         - 2.0014079278588793e-03
         - -8.7853862659216530e-04
         - 4.8004475829835445e-03
         - -5.0699900817462720e-03
         - 6.3762729604896788e-03
         - -1.7527342062129924e-03
         - -2.0440558820937946e-03
         - -2.7318613850370334e-03
         - -8.4417637091590472e-03
         - -5.5108698405761946e-04
         - 3.0623798223954812e-03
         - 1.4486341465414006e-02
         - 1.2530054038350240e-03
         - -6.4592596735532594e-03
         - 1.0437877436038617e-02
         - 2.5576230712015175e-03
         - 2.0267734538955043e-02
         - 8.2298560242079263e-03
         - 6.8451850394038553e-03
         - 1.0421836658623696e-02
         - 2.1893083404235448e-02
         - 9.5480365855829495e-03
         - 5.9874939042342569e-03
         - 3.2435001672195614e-03
         - 5.5913513101386349e-03
         - 3.3492354459214776e-03
         - 6.8837396192204725e-03
         - 7.6616828457813846e-03
         - -4.0484888318015697e-03
         - 1.7736325081961868e-03
         - 6.0844032426589341e-03
         - 4.8203640105633078e-03
         - -4.7395741742471053e-03
         - -7.7195535751573051e-03
         - -3.2421562433635519e-03
         - -1.0146550282974281e-04
         - 6.9932109223542083e-03
         - -4.7526733895591764e-03
         - -2.4066174060621403e-03
         - -3.1726314159824733e-03
         - -5.0356345140647948e-03
         - -3.4437911003618342e-03
         - 2.6179653528923888e-03
         - 1.9255587317774112e-03
         - -6.6203313973210798e-03
         - -7.2475081633366287e-03
         - -4.9619712619548449e-03
         - 7.1640831061885648e-03
         - -4.2040205843574159e-03
         - 7.1595963258490594e-03
         - 8.5724040825315463e-03
         - -1.9319399526913677e-02
         - 6.1085058696716608e-04
         - 2.4272659305581007e-03
         - -1.4770861695702986e-02
         - 1.5010714873753702e-03
         - -2.4252108568928111e-02
         - -1.6308869493388906e-02
         - -1.3132375232726472e-02
         - -1.5017986408043310e-02
         - -4.2767181937542080e-02
         - 8.3934710397869712e-04
         - -3.8700282160074118e-03
         - 1.3386740786236276e-03
         - 4.8983441743740098e-03
         - -4.8067173104011617e-03
         - -7.3111863463708431e-04
         - 6.1171920674982739e-03
         - -3.9190108821093991e-03
         - -4.5186073082253263e-03
         - 1.8730777685101896e-03
         - 2.0074103748928492e-02
         - -7.8960068927960980e-03
         - 3.1389986982291035e-03
         - 2.1351485593828070e-02
         - 1.8281745995569435e-03
         - 2.9144143028246652e-02
         - 1.0066598266051809e-02
         - 1.7864993761141250e-02
         - 2.2358616348585100e-02
         - 3.2829930643332991e-02
         - 3.8982605724178603e-02
         - -4.4003644699403536e-04
         - -7.1378122004586483e-03
         - 3.4562427349446222e-02
         - -1.6931403243748949e-03
         - 3.5693815831473082e-02
         - 2.1439655772285415e-02
         - 1.5305903041132473e-02
         - 3.3686998238584349e-02
         - 5.2774413317348529e-02
         - 1.9209695690819158e-02
         - -3.8253777127976612e-03
         - -3.7315036847284811e-03
         - 2.2657995846735536e-02
         - -4.1958976520937979e-03
         - 2.9807745054921796e-02
         - 1.0702078370639105e-02
         - 1.6590970487876715e-02
         - 2.8158747821094482e-02
         - 5.2909783315548763e-02
         - 7.6160471960107544e-03
         - -2.2729494303172751e-03
         - 1.1793670750771645e-03
         - 9.4244149983045630e-03
         - 1.7732606885889055e-03
         - -1.7238224503756444e-03
         - 2.9924125358421791e-03
         - 2.9259247556368559e-03
         - 5.7051910350302054e-03
         - 9.7647851843246283e-03
         - -1.5117233108542344e-02
         - 5.8193620200125478e-03
         - -1.8485093017499689e-03
         - -6.6693017021647281e-03
         - -2.6617027934357207e-04
         - -9.7147503340967809e-03
         - -4.9424777301185895e-03
         - -9.4663317232531914e-03
         - -1.3879227373800972e-02
         - -2.1297151340421250e-02
         - 1.4908662143521019e-02
         - 4.3048104869475891e-03
         - -2.2042046599035168e-03
         - 1.2987803479350146e-02
         - -9.9336035330998477e-04
         - 9.2549715533226905e-03
         - 2.0427730386834249e-03
         - 3.1807063852739132e-03
         - 1.1316498924743892e-02
         - 8.1258903080928483e-03
         - 1.9134224813448693e-03
         - 1.9057433890233163e-03
         - 7.2864725136358539e-03
         - 4.9875587094022882e-03
         - -2.2921745263092060e-03
         - -1.9520047905825545e-03
         - -5.8173163128979830e-03
         - -4.4126588682498798e-03
         - 3.4700219409018718e-03
         - 1.9651315325062034e-03
         - 2.8059707226331314e-03
         - 3.9003094933027101e-03
         - -6.0782324912638560e-04
         - -2.2789368519164493e-03
         - -1.3259352686837904e-03
         - -1.7577759297062595e-03
         - 9.3237984329697498e-03
         - 4.6129165036434020e-03
         - 2.1709996166479942e-03
         - -2.3857059729711613e-04
         - -5.2612616295749813e-03
         - 4.6276566702035645e-03
         - -1.8658734085352810e-03
         - 4.1482190532112296e-03
         - -1.6084902511847073e-03
         - 9.5236636672344620e-03
         - -6.7954170932471962e-03
         - -4.4349874670552821e-03
         - -1.4049624716948065e-03
         - -3.9418568219979695e-04
         - -5.1400980587309256e-03
         - 5.8952792928757321e-03
         - 8.4713609173700435e-04
         - 5.8419890317056222e-03
         - -2.8054422037254688e-03
         - 8.6441900245059454e-03
         - -3.8882887620521935e-04
         - 3.0289843461896522e-03
         - -1.1494846132422275e-03
         - 2.8660423297981199e-03
         - 1.0292725679838714e-02
         - -7.5272855214446556e-03
         - -1.5677957633527496e-03
         - -6.5358313404937710e-03
         - 2.0154527285867136e-03
         - 2.5831701334197554e-03
         - 2.0241403102173820e-03
         - -4.5619513234865560e-03
         - 1.1593149926322715e-02
         - 4.8634367465011227e-03
         - 4.6688044202310092e-03
         - 6.0210077495517853e-03
         - -5.9616602911201893e-03
         - 3.2174071239008156e-03
         - -6.1667265002611250e-03
         - 4.5949754899519699e-03
         - -6.2731988661795541e-03
         - 5.9800195018286225e-03
         - 2.2338919636458194e-03
         - -6.0640051988824131e-03
         - 1.3303566111699318e-02
         - -1.3062003420811668e-03
         - 2.9433005970291018e-03
         - 9.1601972817088179e-03
         - -3.0905926443052043e-03
         - 8.0723187762985794e-03
         - 1.2381219743927713e-02
         - 9.0815505216540509e-05
         - 8.9807010672032350e-03
         - 1.7254412223104695e-02
         - 6.8995695385307733e-03
         - -3.2541329805918719e-03
         - 1.6659720966852340e-03
         - -1.5987010707025943e-03
         - 5.9253246300382681e-03
         - 6.0716795311338459e-04
         - -4.6670819838425518e-04
         - -4.4971301243285676e-03
         - 6.9936753941981303e-03
         - 1.7821527343356285e-03
         - 1.0729371122580607e-02
         - 3.0372587446850386e-03
         - -7.0177068931316072e-03
         - 1.0500840721849959e-02
         - 3.6929761474318750e-03
         - 1.0932589730095733e-02
         - 1.6930120554160416e-03
         - 6.5893217319166848e-03
         - 4.8286885230360574e-03
         - 1.0604044531703858e-02
         - -9.5124624839503288e-03
         - 9.4080459502598936e-03
         - -6.3929647736050412e-03
         - -8.6134145537033174e-03
         - 1.3546625381700669e-03
         - -1.1524942315074265e-02
         - -1.3347336622162331e-03
         - -1.0197312429358906e-02
         - -1.3594102767348027e-02
         - -2.7947384242650957e-02
         - 2.3342307293471219e-02
         - -2.4329047850533145e-03
         - -7.3305263400193429e-03
         - 2.0836753074643593e-02
         - -3.2905644680459511e-03
         - 2.8503874369450614e-02
         - 1.6366735348968538e-02
         - 2.9569606982200059e-03
         - 2.6586769299493249e-02
         - 3.6173570551594980e-02
         - 1.7889403970733544e-02
         - -6.7842279334429396e-03
         - -9.9424321120972006e-03
         - 1.9893964555106041e-02
         - -2.4412604671610123e-03
         - 1.5256046417541051e-02
         - 1.3140547405212089e-02
         - 1.2625506315581429e-02
         - 1.2874563919846319e-02
         - 3.4725699346976002e-02
         - 1.1895548067434010e-02
         - -4.7541145435821015e-03
         - 1.4226827201492787e-03
         - 3.4880583516363759e-03
         - -5.2113404511314643e-04
         - 1.1000924286807585e-02
         - 5.3214255972068294e-03
         - 6.8927741826468308e-03
         - 1.5460224348405428e-02
         - 2.1873086481235274e-02
         - 1.6640447837240082e-02
         - -6.0258626729378928e-03
         - -6.7287047732845085e-04
         - 1.8512133979117482e-02
         - 4.3828422251177591e-03
         - 2.1327301247202234e-02
         - 8.9996641952988024e-03
         - 4.9283418266800735e-03
         - 1.5278857293749521e-02
         - 2.7457931777743080e-02
         - 2.7638344771791560e-02
         - 1.0236114400386173e-03
         - -2.2516042968645468e-03
         - 2.1065403889993523e-02
         - 4.0886178894330109e-03
         - 2.1237754938848427e-02
         - 9.4129632396093808e-03
         - 8.8129977477738510e-03
         - 3.4384216788463255e-02
         - 5.1191063220681343e-02
         - -2.7940855208793583e-03
         - -8.4184346673781916e-03
         - -3.5157056811394062e-03
         - -9.2858066149944976e-04
         - -5.2389779187084718e-03
         - 6.7731976776907064e-03
         - 7.6212385506542026e-03
         - 2.2251661229484096e-04
         - -4.9622980849377209e-04
         - 4.9257381620594065e-03
         - -7.3579913323665758e-04
         - 3.6849244885287557e-03
         - -1.1158679855372573e-03
         - 4.6219378117014097e-03
         - 3.8968023504585970e-03
         - 6.7806528698465826e-03
         - -5.8285577207176260e-04
         - -5.6529695201172868e-03
         - 2.7754089596276352e-03
         - 8.5414973694503439e-03
         - -1.4068145687427976e-02
         - -6.3459755438494711e-04
         - 1.1768945246483963e-03
         - -5.3497975394143161e-03
         - -4.5534024278765604e-03
         - -7.9248315988119031e-03
         - -1.1583670699996718e-02
         - -6.3462792309934195e-03
         - -1.1670316628583730e-02
         - -1.6594656422984858e-02
         - 2.4692908459096070e-03
         - -1.9742261227582384e-03
         - -2.0409756780882830e-03
         - -1.1251604804618971e-03
         - -1.6784169649530242e-03
         - 8.8322171150413045e-03
         - 5.1850157953771715e-03
         - -3.9791770595118238e-03
         - 4.9766376002402237e-03
         - 3.1714141800034262e-03
         - 2.7683505495371733e-03
         - 3.5409759158006840e-03
         - -5.1437625147810135e-03
         - -1.0178968233119209e-03
         - 3.4893781956687950e-03
         - 5.8674196607543042e-03
         - 1.2753418589271564e-04
         - -4.8404600432688108e-03
         - 1.9539558748383522e-03
         - 5.3593504002625138e-03
         - -2.2711121281047689e-02
         - 5.5262316304490553e-03
         - 2.2039936624901105e-03
         - -1.4946701266781571e-02
         - 4.0949140343526999e-05
         - -2.4835781902973589e-02
         - -1.5725100596891896e-02
         - -1.5112508018803372e-02
         - -1.5610742199362176e-02
         - -3.2487710752313693e-02
         - 3.8593100468839727e-03
         - -8.1960939019156392e-03
         - 4.3810220647242808e-04
         - 1.6945831627227139e-03
         - 5.0375179025896142e-03
         - 1.1780746910700701e-02
         - 8.1432785061656340e-03
         - -9.8781445396659852e-04
         - 2.1348904320651800e-03
         - 1.0341618224796352e-02
         - 9.7047915972116993e-03
         - -5.7240651145257981e-03
         - -6.6368934411448494e-03
         - 3.2716309933549909e-03
         - 7.8884759884438205e-03
         - 6.2209063331255583e-06
         - -4.6504686348269996e-03
         - 7.3255078870087956e-03
         - 5.2809727626525749e-03
         - 1.0271981999261836e-02
         - 1.8657477011821394e-04
         - -7.5442232310413823e-03
         - -4.4087540145582027e-03
         - 3.8440746519589862e-03
         - 3.2901497081879614e-03
         - 5.3314635167184482e-03
         - -3.1385383642959126e-03
         - -6.3844587181739370e-03
         - 6.8426487432213224e-04
         - 4.7418096650616338e-03
         - -6.5187742033033839e-04
         - 2.0044341405467676e-03
         - -3.2963618340995701e-03
         - -2.8273895300443795e-03
         - 5.7239624495695656e-03
         - 4.0456915533424349e-03
         - -3.4811609252217105e-03
         - -2.0912910027150763e-03
         - 4.1775843752109220e-03
         - 1.8982805415327212e-03
         - 1.8057525768744451e-02
         - -2.8838838054268887e-03
         - -5.6633585157807500e-03
         - 1.6155287659190783e-02
         - 2.8801412911269647e-03
         - 1.6369314892790653e-02
         - 1.6840265238452990e-02
         - 1.0691455771949222e-02
         - 1.9059851959492675e-02
         - 2.7232111702875265e-02
         - -7.0839729096987139e-03
         - -1.4416041724003952e-03
         - 1.9448724809528228e-03
         - -2.5044565073358868e-03
         - -2.1398544622801348e-03
         - -1.5592214006522383e-03
         - -1.1459710212030736e-03
         - 6.8285792018326526e-03
         - -4.5112929174653997e-03
         - -3.9073953395200632e-03
         - -1.9750144134830547e-02
         - -6.2237529189794879e-03
         - -2.2705777375594976e-03
         - -1.0488229193777305e-02
         - 2.0189096875676176e-03
         - -1.6006649071701701e-02
         - -5.7953491270333942e-03
         - -4.6252062561629491e-03
         - -1.3824163512624547e-02
         - -2.5895681400038190e-02
         - 1.0802585787045764e-02
         - 4.9864269436043236e-03
         - -2.4336581093605592e-03
         - -4.8435067304118895e-04
         - -3.1059068279032620e-04
         - 2.2034995247506403e-03
         - 5.5090004973101423e-04
         - 6.5058206951892402e-03
         - 8.5411095623182595e-03
         - 1.1108342362668501e-02
         - 3.1179936380405157e-02
         - -6.7229201535029389e-03
         - 2.7894358085692678e-03
         - 2.4245104978461669e-02
         - 6.0619506355746172e-04
         - 3.4355610218542103e-02
         - 1.3470750739969116e-02
         - 3.6969224951734600e-03
         - 3.8431079879745013e-02
         - 4.2766689425209566e-02
         - 1.7868391813307231e-02
         - -5.7411230761354711e-03
         - 2.9532825569997269e-03
         - 4.8935752294082882e-03
         - 8.4599116430759296e-04
         - 1.7396729770417022e-02
         - 9.8212352077626189e-03
         - 6.3653775422185255e-03
         - 1.3730939478432571e-02
         - 1.7862811637593411e-02
         - 2.9969295518574100e-02
         - 5.9084181757759183e-04
         - -1.5085514552613899e-03
         - 1.8377260625003684e-02
         - 2.5358571241344322e-03
         - 2.5667773162167205e-02
         - 1.6831320236322871e-02
         - 1.1437689760499928e-02
         - 3.1665782553133535e-02
         - 3.8994176527354478e-02
         - 1.5865696297716819e-02
         - -2.7499757058947016e-03
         - -5.6511736775208153e-05
         - 1.3085557314394310e-02
         - 7.2679801210726582e-03
         - 2.9507872831072920e-02
         - 8.4427484587337384e-03
         - 3.7613565190350948e-03
         - 3.0850809903672966e-02
         - 3.2004497880812770e-02
         - 7.1230486392082435e-03
         - -6.0366589278534879e-03
         - 4.1708492653052204e-03
         - 2.4856503598267915e-03
         - -4.2523670849466434e-03
         - -1.1933541448887026e-03
         - 1.0560752998957723e-03
         - 3.2531589544325173e-03
         - 9.7232983826243801e-03
         - 8.1442296212017539e-04
         - 2.5498741259536066e-03
         - -6.7886263520641962e-03
         - -4.0763615283624976e-03
         - -7.4079735775152249e-03
         - -2.5815174201061948e-03
         - -7.3060090719576668e-03
         - -5.8700426370462775e-03
         - 5.3279638126755482e-03
         - 5.1989717599291389e-03
         - 5.2921868808669019e-03
         - 8.4893266165673911e-03
         - 1.2049607414148763e-03
         - 5.0325926934436703e-03
         - -4.4208987611934368e-03
         - -6.3716056807170312e-03
         - 5.3139719243732843e-03
         - 6.2788483224257372e-03
         - 5.9633847675202066e-03
         - -4.0465630416679456e-03
         - -4.4297262395785707e-03
         - -3.0903082056021273e-04
         - -5.4387821227880814e-03
         - -1.2437834439763395e-03
         - -4.6315548598907076e-03
         - -4.1503364686412353e-03
         - 7.4328251574930044e-03
         - 6.9995449159647258e-03
         - 6.4359303587033902e-03
         - 4.6639767858273123e-03
         - 6.2425069371184055e-03
         - -1.6018025598235536e-02
         - -5.2259987432804762e-03
         - 1.2116863144507055e-03
         - -1.3974576687392727e-02
         - -7.6751910631064606e-03
         - -1.5838558006794057e-02
         - -3.2053718606399528e-03
         - -4.6312375046311622e-03
         - -1.2281519350075248e-02
         - -1.5190531938948358e-02
         - 3.7664744692494402e-03
         - 1.8312879482121408e-03
         - -4.1654034760742397e-03
         - 4.5759237465432335e-03
         - 4.1341356388368000e-03
         - 7.8954464763145837e-03
         - 4.2124359911475317e-03
         - -3.5353564253981654e-03
         - 3.9447731815098275e-03
         - 1.0002616228923810e-03
         - 9.2242905504559599e-03
         - -8.4706130739399185e-03
         - -3.4834838414615926e-03
         - 1.3999419843251371e-02
         - 3.5945394498609127e-03
         - 6.0329775474111313e-03
         - 2.6772542489298225e-03
         - 1.3275260461655882e-03
         - 1.4125477988015760e-02
         - 1.2016496170825694e-02
         - -2.7300732672325698e-03
         - -4.9249681736014033e-03
         - -6.5112078274622194e-04
         - -1.4208300633213372e-03
         - 2.2516022293626436e-03
         - 5.9702797964369340e-03
         - -3.0919285601866781e-04
         - 6.9699141429611054e-03
         - 7.3178690316658595e-03
         - 4.9884012097474511e-03
         - 2.6885735833508903e-03
         - -5.2007580886451838e-03
         - 5.0706452799818219e-03
         - -2.7543636175271806e-03
         - -3.7358586620223778e-03
         - 4.9652747189462224e-03
         - 4.3998288270244599e-03
         - 2.5256223395450847e-03
         - -2.7152827243749110e-03
         - -4.8694499384686714e-03
         - -1.1700882045750372e-04
         - -2.8366588360273374e-03
         - 6.9900186040734952e-04
         - 4.8129664023371758e-03
         - 3.4083854522513560e-03
         - -4.5017974838289171e-03
         - 6.0849224691583966e-03
         - -5.1337399907127245e-03
         - 5.4830650973432954e-03
         - 1.0531732848559110e-02
         - -2.4082682979001107e-02
         - 4.8012023436484405e-03
         - 6.4465361635695738e-03
         - -2.6371148463298681e-02
         - 2.6124229157916084e-03
         - -2.4552370939862841e-02
         - -9.1124777393092726e-03
         - -7.8103261044383393e-03
         - -3.2787433077212574e-02
         - -3.3578068367612651e-02
         - -5.1904027443639335e-03
         - -4.9147132178416469e-03
         - 6.7493376817895643e-03
         - -3.9170884074398509e-03
         - -1.7398369625088810e-03
         - -1.0021710985920220e-02
         - -9.5205980082264663e-03
         - -4.8129916639100051e-03
         - -5.8132760454178119e-03
         - -9.6840151233512535e-03
         - -1.0826230578957945e-03
         - -4.5294596957280667e-03
         - -6.7174392454952808e-03
         - 4.6568124254512833e-03
         - -1.2081244855606261e-03
         - 1.1263614186301767e-02
         - -5.5258294997063582e-04
         - -4.8177780061201322e-03
         - 3.1838754978345159e-03
         - 1.3036321376793225e-02
         - 2.2575023862935230e-02
         - -1.1121718375148533e-02
         - -1.4433313982878154e-03
         - 1.8222636138841661e-02
         - -4.9436758902989819e-03
         - 3.3466172514743479e-02
         - 1.1751514262968525e-02
         - 1.2546546005399535e-02
         - 3.4859272892084438e-02
         - 5.1163283897057592e-02
         - 1.2071036596807774e-02
         - -7.6231343805485087e-03
         - 3.1577955545719349e-03
         - 1.2958361163304941e-02
         - 6.4332540815385244e-03
         - 8.3771430516157031e-03
         - 7.0418865224287979e-03
         - 2.1364233187862679e-03
         - 1.7582173634276315e-02
         - 1.2877709462645806e-02
         - 2.0950746054801430e-02
         - -8.4686097501102883e-03
